{
  "version": 1,
  "inputSize": 9,
  "latentSize": 20,
  "hiddenSize": 64,
  "columns": [
    "attack",
    "health",
    "taunt",
    "rush",
    "stealth",
    "divineShield",
    "windfury",
    "reflect",
    "lifesteal"
  ],
  "featureStats": {
    "max": [
      5,
      7,
      1,
      1,
      1,
      1,
      1,
      1,
      1
    ]
  },
  "encoder": [
    {
      "weights": [
        [
          -0.19353087875060143,
          0.18126985111773591,
          -0.6100450676784208,
          -0.30799482888104973,
          0.2630559636438996,
          0.49921644550152044,
          -0.48115930053447153,
          1.0048422862986863,
          -0.845667175907856
        ],
        [
          -0.06399844987611465,
          0.6482396145859559,
          0.3506436227068635,
          -0.23779955267118835,
          0.48254957351955774,
          -0.24327881750087493,
          -0.58943304523076,
          0.2619727440463446,
          0.4940813622671438
        ],
        [
          -0.08835281235043627,
          0.7066514155454565,
          -0.5896042991860775,
          0.17957079887490995,
          -0.17567833566003083,
          0.25747270967070657,
          0.5828842925433265,
          0.2971148516236075,
          0.06352549651801798
        ],
        [
          0.08770790265972957,
          0.5776423722601061,
          0.10973058854749702,
          -0.07329176907883947,
          -0.8944598305712147,
          -0.4855383010048155,
          0.6131667732788006,
          0.502627212304929,
          -0.6766952243422517
        ],
        [
          0.07080695504081626,
          -0.3522451616188544,
          1.2404453749185949,
          -0.04257104128940818,
          -0.3304965142199668,
          0.19353569861057382,
          0.4379638939259256,
          -0.00005122418588770155,
          0.39184459701266683
        ],
        [
          -0.18708928163083927,
          -0.0222408319407243,
          0.3346583314899678,
          -0.17374611928693195,
          0.17781202712479965,
          0.58759820785562,
          -0.6906598399009778,
          -0.3343251106029526,
          0.08691519366627726
        ],
        [
          0.41525502680851845,
          0.08891052861267083,
          -0.35825810634054894,
          -0.03280621148773999,
          0.8037131262124783,
          -0.26205998401702585,
          -0.8039820807293238,
          0.5188894029126326,
          0.002531190175655008
        ],
        [
          -0.5883017555470842,
          -0.1943232053883914,
          -0.29172787754409185,
          -0.07721923776336233,
          0.5374777186468795,
          0.03836746423034464,
          0.4729236152491121,
          -0.3262779335702321,
          -0.22411681824501561
        ],
        [
          -0.29875451102215356,
          0.2084743121132349,
          -0.190074792297601,
          0.4617641809678805,
          -0.03172049253951018,
          -0.1322454786608239,
          -0.1292079993605219,
          0.22451400007448377,
          0.23397482512633552
        ],
        [
          -0.4646420231818535,
          -0.24323772167399238,
          -0.5663866676773756,
          -0.4823226736726095,
          0.2781756226625434,
          0.12397607395035118,
          0.2046284488244601,
          0.12249256942221792,
          -0.2241240508076178
        ],
        [
          0.09977469027620789,
          -0.22976324798891729,
          0.09383437480803954,
          -0.503591058507181,
          0.6612772468151967,
          0.6693459353183208,
          -0.20319059005100654,
          0.08357744604419814,
          0.3629124595993166
        ],
        [
          0.1942559049342338,
          0.12584742147715902,
          -0.13806536775144587,
          -0.8836305208595732,
          0.6593649126397212,
          0.35723034095856704,
          0.24468646536053662,
          -0.009575384634386041,
          0.649730096480814
        ],
        [
          0.2606113278536981,
          0.13789349564797623,
          0.6387434953797895,
          0.35355400210536186,
          -0.011959930878882596,
          0.3944633635770084,
          -1.0356132125985182,
          0.1690050422680926,
          0.31739333301599454
        ],
        [
          0.27229566804365424,
          0.7762788737401761,
          -1.0999267233522687,
          0.059366661796404915,
          -0.20239992157055128,
          -0.16707006216498138,
          -0.07808883694358071,
          0.22697289256214193,
          0.1869780692304598
        ],
        [
          -0.5022343408155263,
          0.5735480855255638,
          0.4697049142278528,
          0.09181214474534646,
          0.5052632550159691,
          0.868828947777273,
          -0.5317980058796423,
          -0.27179717855981855,
          -0.5529231115373976
        ],
        [
          0.3173268951090313,
          0.22894883140750524,
          -0.5731093950857223,
          0.478504006975718,
          -0.04362539277658836,
          1.3180515681176057,
          -0.5956949651091309,
          -0.10443465395227576,
          0.230178565837045
        ],
        [
          0.1807707821632011,
          0.633794120400868,
          -0.8304259736896162,
          0.3416180218139317,
          -0.2995087780752109,
          -0.38837176457257855,
          0.1483070711890956,
          -1.0198431328200903,
          0.09584639251380271
        ],
        [
          -0.7388436001267404,
          0.7956281378723961,
          0.8503485730974726,
          0.0855962297577357,
          0.21826508526875504,
          0.1685819015168905,
          0.7647520872885892,
          -0.02616459016060491,
          -0.6072993738154328
        ],
        [
          -1.101109919244226,
          0.059362205087946665,
          0.7566736637757256,
          -0.8329663559643901,
          -0.726149094865795,
          -0.004665527542304339,
          -0.17218690522463292,
          -0.3216349948511669,
          0.2096218646020009
        ],
        [
          0.20017201979356447,
          0.19677791263917097,
          -0.7698603103901135,
          0.42594857799161384,
          -0.9036477727622384,
          -0.19198408343498488,
          -0.24554753003649887,
          0.17365140831939632,
          -0.354335334512785
        ],
        [
          0.7787489618284255,
          0.02169874375198077,
          0.4947836837187774,
          0.4199583373297953,
          -0.4609871365915525,
          -0.033326872606734885,
          -0.07978161561816711,
          -0.25558945105641023,
          -0.0007007252843861235
        ],
        [
          -0.15256350670443655,
          -0.11681391422579895,
          -0.8496858900760696,
          0.43540736761717636,
          0.10019580955677479,
          0.513348420675319,
          0.10134811823854734,
          0.18869110162040942,
          0.11542790992726838
        ],
        [
          -0.0866996552044051,
          0.41029489637133776,
          0.08617611492908608,
          0.19911395506214882,
          0.7853156123956055,
          -0.26989370997364137,
          -0.030822654829224444,
          0.10422497154958422,
          -0.17133729524506325
        ],
        [
          -0.9056003345560318,
          -0.45187606301380046,
          0.5345363602782367,
          -0.08016315488052593,
          -0.22194939306306966,
          0.17480537774605687,
          -0.061170967048367685,
          -0.5189034162542379,
          -0.5008806866145005
        ],
        [
          0.17871753578089858,
          0.5482567837583386,
          -0.7405162204884355,
          -0.5889989141515761,
          0.8278553543606534,
          -0.1848925656269759,
          -0.30050169930963305,
          0.3605873578235898,
          -0.5654108609110182
        ],
        [
          -0.9093036091914319,
          0.25110590586047005,
          -0.38544337475178037,
          -0.1073168341587522,
          0.11048995556469596,
          0.4911514970239445,
          -0.34875001267488476,
          0.6315327391315677,
          -0.150387181792202
        ],
        [
          0.3792851078838789,
          0.4593967664003277,
          0.0035591881491241753,
          -0.14349696855419442,
          0.12006313727666301,
          0.253457805421324,
          -0.03493658997915543,
          0.38298060753961255,
          0.5892290452646889
        ],
        [
          -0.4550255916390185,
          0.35718537857856836,
          -0.13668776192179002,
          -0.7266829915227092,
          0.11533991168849576,
          -0.24590301892928457,
          -0.32861268042512976,
          0.18461964889737012,
          0.029128343891206953
        ],
        [
          -0.1572582140064778,
          0.11725152748876135,
          -0.434414270340498,
          1.1832266413322332,
          0.09095419414342475,
          0.07995563929133398,
          -0.5215315550323408,
          0.34776752053553084,
          -0.4271771832125342
        ],
        [
          0.36740085629194313,
          -0.8506358570989568,
          -1.0514772232297263,
          -0.3282180289605616,
          -0.6049451003342112,
          -0.055921941419444635,
          -0.19166348485505655,
          -0.16899865803166497,
          -0.6236301680854824
        ],
        [
          0.009465054410509249,
          -0.1946446387477405,
          -0.002655391746041757,
          -0.04001760752007006,
          0.13125854272062992,
          -0.5285289201319605,
          -0.32911944701226586,
          0.057664388763788516,
          -0.1483829368051743
        ],
        [
          -0.3556911533952458,
          0.4317285935791752,
          0.12068366123712278,
          0.7065436614211297,
          0.7854525579791721,
          0.35178175648009546,
          0.1639252505488627,
          -0.4281963038025737,
          -0.336458492530695
        ],
        [
          -0.6386682190610862,
          -0.09211260874160901,
          -0.17062400170615527,
          0.06663809228921128,
          0.8042864164310698,
          -0.6751567098485992,
          -0.020412387031655703,
          0.3183476658661331,
          0.10750405446297955
        ],
        [
          -0.5107182571834039,
          -0.6686955614724225,
          -0.08207975664488919,
          0.8327877031335426,
          0.25478777638931827,
          -0.17234384249115797,
          -0.21438553853022155,
          0.5020382833891,
          -0.13784748190408416
        ],
        [
          -0.7294767874485206,
          -0.03609473832717093,
          -0.16044564207251896,
          -0.25185247047835857,
          -0.031150325893105624,
          0.07776669830552746,
          0.1682358191451205,
          0.09126444797606972,
          0.24741627886012224
        ],
        [
          -0.07391346944866485,
          0.013986235990639901,
          0.3203226226887972,
          0.9013865078193041,
          0.4011262405348192,
          0.28675461268947516,
          -0.143051670447645,
          0.31335449958899614,
          -0.2280544208458333
        ],
        [
          -0.6365479985157821,
          0.33059654613779715,
          0.12092017650190293,
          -0.9026291337103003,
          0.3456777975220607,
          -0.22242515197573245,
          0.5807928360007107,
          -0.06718937778794037,
          -0.7015289566853272
        ],
        [
          0.34258382926482334,
          0.5399247860994589,
          -1.036980593690371,
          -0.027746707103005305,
          0.3563053984509351,
          0.7187798821539915,
          0.13173664224112325,
          0.018402073359978337,
          0.061078995929910826
        ],
        [
          0.37208538410922964,
          -0.12002328009321475,
          0.4136263258721135,
          0.0017359074291335376,
          -0.030244742276262327,
          0.7970449388327995,
          0.5622025837016337,
          0.1568179350443254,
          -0.3901535157772822
        ],
        [
          0.9405216961228431,
          -0.0872171912291594,
          -0.4207648547869685,
          -0.12887791611812047,
          -0.2061963846753266,
          -0.23669251511068753,
          0.6095806025012963,
          0.26029684868408354,
          0.03776293831578905
        ],
        [
          -0.63730570437449,
          0.053402321023184846,
          -0.393560990048533,
          0.4288792401885459,
          -0.24020758858553157,
          -0.2118125770363792,
          0.04760815586285051,
          0.0702902446824252,
          0.3438948210461304
        ],
        [
          0.12656487373051284,
          -0.5475311187359112,
          0.23760733649040666,
          -0.3440602331186808,
          0.5905255988364815,
          -0.8475145761320891,
          -0.3621754929250902,
          0.21973922420972225,
          -0.2720345556500729
        ],
        [
          -0.4683356633470775,
          0.041947450237590465,
          0.9114304996733925,
          0.3259520574714148,
          0.9419120141504873,
          -0.3480747788037525,
          -0.3008904910580646,
          -0.9362853233166384,
          -0.028855797478378548
        ],
        [
          0.6233571948407803,
          0.19236006291385124,
          0.5540519833204545,
          -0.6705016251884373,
          -0.3484047979010486,
          -0.11609786193844424,
          -0.3442876056066344,
          -0.04199217213077864,
          0.4412642402930929
        ],
        [
          0.9160316691099445,
          0.482274043192786,
          -0.3515633863878995,
          0.05902034441882677,
          0.1564284896551186,
          -0.35262300725790463,
          -0.8446999495042344,
          0.37957269528933274,
          -0.6773552564642886
        ],
        [
          -0.6457880703376412,
          -1.206498350969184,
          -0.05212237225016962,
          -0.6251310268161825,
          -0.4882322466113857,
          -0.12422521848901727,
          -0.11959883164062707,
          0.06965313238509231,
          0.5948395248660937
        ],
        [
          -0.5081102963030424,
          -0.5684123408279633,
          -0.36461590449742604,
          0.14006907946624333,
          0.5007447531293134,
          0.7922050037039011,
          -0.44721781592194654,
          -0.25655827491841315,
          -0.05169438530336037
        ],
        [
          0.09750008898593038,
          0.30013667137486705,
          -0.3084834088996592,
          -0.34849554148824774,
          0.08714558548628921,
          -0.7101084062393441,
          -0.3008619602942526,
          -0.5918366962935577,
          -0.3771990747046632
        ],
        [
          -0.6792285131387831,
          -0.3720166638685876,
          -1.1600842997593557,
          0.2927038792886211,
          0.5468563335839589,
          -0.03170324651310759,
          0.06275979170306968,
          0.437215308467723,
          0.5585318755540564
        ],
        [
          0.25755930986329323,
          -0.2047514494623717,
          0.16422828552159888,
          -0.7071241750090485,
          0.32113849325855764,
          -0.4729845782702772,
          0.20864800449651122,
          -0.841371908787133,
          -0.32862511848471426
        ],
        [
          0.34429007909878,
          -0.6960365826644527,
          0.4547636548799304,
          -0.3527316081594804,
          -0.09745720068894823,
          0.3268943779545625,
          0.36339436156143795,
          -0.39443483742056606,
          1.4635579318209717
        ],
        [
          0.18903638397513825,
          -0.06771792194819796,
          -0.05823499387103581,
          -0.03161252753706944,
          -0.32265156479402163,
          0.8158294973458569,
          -0.00022495080482483692,
          -0.8589070269684141,
          0.40441376087909336
        ],
        [
          -0.192397646947002,
          -0.09457072111324359,
          -0.2991382355436513,
          -0.2404574293798033,
          0.1554679846109999,
          -0.37120038269958355,
          0.07125109949470977,
          -0.048693936642192286,
          0.5643304247664046
        ],
        [
          -0.26413027743531825,
          -0.527018143127611,
          0.5746411159488456,
          -0.5678806758089392,
          -0.03179088741694436,
          -0.09730542344362363,
          -0.2838014904318769,
          0.12667843262413417,
          -1.037897968647345
        ],
        [
          -0.4288316804329553,
          0.3385909276649491,
          0.2636546450936598,
          -0.1376338566467191,
          -1.141056195778057,
          0.4877397144600758,
          0.40262253942723414,
          -0.19669233690914945,
          -0.2763688311386995
        ],
        [
          0.2799112180320513,
          0.19105391111784084,
          0.3733151603657026,
          -0.6541725755271861,
          0.5421272290767324,
          0.5308842483864893,
          -0.03181060842377325,
          -0.3638355130868531,
          0.6412300045049995
        ],
        [
          0.07117592777928149,
          -0.06142974668538949,
          -0.4628770701936856,
          0.42637634616015874,
          -0.26564141132468516,
          0.36608725096453065,
          0.04391596394088688,
          -0.30270013978682486,
          -0.12468314409146049
        ],
        [
          -0.41546486631533064,
          -0.7158326468244328,
          -0.45509430964679515,
          0.0676694625035909,
          0.31422711256746794,
          0.06989811211162518,
          -0.01683296011523306,
          -0.2361040025152443,
          -0.8459960667345652
        ],
        [
          -0.16446555129633128,
          0.26705974662777204,
          -0.3555004180504939,
          -0.022770422166829073,
          -0.28788195877273987,
          0.5780190729541362,
          0.6632268932089666,
          -0.23057201377285255,
          0.47049857474479895
        ],
        [
          -0.4438022164268794,
          -0.5901557351203253,
          -0.4698957492800156,
          0.7926501437491286,
          0.8588927106087481,
          -0.20723921479788132,
          -0.13261092976793154,
          0.2477706087311715,
          -0.6261748501203204
        ],
        [
          0.47638489464591016,
          0.6919217560990794,
          -0.18151150641742253,
          -0.017308510933169666,
          -0.16054596316328304,
          0.06931393759085591,
          -0.3668785736372945,
          -0.7280637771508428,
          -0.04755464449382238
        ],
        [
          -1.030947854343775,
          -0.04101520504568295,
          0.09924825562177138,
          0.10680177219052468,
          -0.7003537372242511,
          -0.34443400300776694,
          1.3385299873673449,
          -0.15243195869580717,
          0.6471686877737204
        ],
        [
          -0.33365143937080277,
          0.8734572872824792,
          0.4853560018263329,
          0.04350306665963685,
          -0.16698917062672708,
          0.25387831932490346,
          -0.6822234363850675,
          0.6810659841920126,
          0.45803747565937325
        ],
        [
          -0.04477362215468767,
          -0.21697131875830222,
          -0.4117514016323267,
          -0.21862649776523924,
          -0.0035415340078744652,
          0.6832741925036991,
          0.7118999271063006,
          -0.4298977256465698,
          -0.7693687984704929
        ]
      ],
      "biases": [
        -0.04321519522088269,
        0.31917613607899276,
        0.1064028275875493,
        0.2571290267764794,
        0.8506435689365278,
        0.008313706520457487,
        0.5864672709427616,
        -0.028004101515037974,
        0.02956904596736762,
        -0.04690871731544847,
        -0.13327367639768942,
        0.2813632455714945,
        -0.33018551133091056,
        0.489599752136317,
        0.28698289295805685,
        0.8328764963559967,
        0.3761691456303416,
        0.5464611997234387,
        0.03582585579484749,
        0.51753184944904,
        0.867437104882405,
        -0.049689161340726165,
        0.3012631375617678,
        0.03621061861389451,
        0.1594866255400657,
        0.0016484641865597523,
        0.2373900225292249,
        -0.01599245685207287,
        -0.029014795297801977,
        -0.017723409395883266,
        -0.01057313183899186,
        0.6317547754069834,
        -0.00414893730491435,
        0.11896003854280399,
        0.06746811797773304,
        0.047871134840338586,
        -0.14554590404552975,
        0.4832487979375522,
        0.8474543033070866,
        0.857825121578073,
        -0.09035459820835501,
        -0.24099619146422,
        0.3257440378281284,
        1.2276582031827876,
        1.1199208819336606,
        0,
        0.024532114636176765,
        -0.36382312195818156,
        -0.009128346923079827,
        0.5568358849050139,
        0.23038790649332966,
        -0.04733074247431936,
        -0.03073841118549227,
        0.023315756890074587,
        0.8515275349839091,
        0.2928439222776622,
        -0.015498653616603054,
        0,
        -0.015770863613314832,
        0.07530332176536694,
        1.2458829332961847,
        0.09163561404303378,
        1.2033988799096191,
        -0.02463479581291759
      ],
      "activation": "relu"
    },
    {
      "weights": [
        [
          0.24972501490861382,
          0.02174893301021566,
          -0.024119657443733795,
          -0.3332197033701018,
          -0.09793660447095866,
          -0.0499037344581523,
          -0.011419841939214076,
          -0.1642723921968502,
          0.21958720837046017,
          0.1478265793042729,
          0.09433061522368875,
          0.263439658108584,
          -0.2639344960299571,
          -0.04080812684800619,
          -0.012851919163129515,
          0.030815581597562994,
          -0.07735519787573111,
          -0.46359926722991274,
          -0.2385195218151159,
          0.14101596939993366,
          -0.10503448676679271,
          0.22870600268326768,
          0.08399085803779979,
          -0.08207357247609073,
          0.27369488023231814,
          -0.011262237667861627,
          -0.1618825831279589,
          0.03709671709543738,
          -0.1783131387318383,
          0.04457993402196772,
          0.05831140666919693,
          -0.5391477802013365,
          0.012778969754753625,
          0.09526743382229734,
          -0.25351116840501803,
          -0.19713097762180998,
          0.17476907297463176,
          -0.3070261773618089,
          -0.2358411116259451,
          -0.24491715299846267,
          -0.08418664009419836,
          0.2754328027387563,
          -0.2142356255577028,
          -0.3393843383447706,
          -0.43671046009217207,
          0.27993135371637196,
          -0.08084903690464641,
          -0.2728437129282413,
          0.07660275876750265,
          -0.13835401349054266,
          -0.05776908997001098,
          0.2685945968084623,
          -0.1710213380787117,
          -0.149379427953353,
          -0.09023877809668632,
          0.0263038739492748,
          -0.302816927285588,
          -0.13942024620444995,
          -0.07093920497247294,
          0.014584036689229187,
          -0.3456426054635597,
          -0.24572915241345164,
          -0.12579361596835137,
          0.11503089234113112
        ],
        [
          0.3244613065924621,
          -0.2263217117341249,
          -0.14603289762079444,
          -0.14348368860598146,
          -0.7408736507463128,
          -0.04497666288930539,
          -0.06673090579191286,
          0.19082132148535366,
          0.03608175578492205,
          -0.5558099376616318,
          0.05765939169600181,
          -0.17403017698134995,
          -0.12332542462110643,
          -0.16142330082752446,
          -0.031346714089524365,
          -0.12438107355088815,
          0.03559092585203939,
          -0.07022666414407712,
          0.055959548840073536,
          0.22296005692481774,
          -0.2812301286164883,
          0.08930328872322528,
          -0.25589880015201494,
          0.04351936205179571,
          -0.14262208024831807,
          0.04648970970166451,
          -0.08536633012766984,
          -0.18950351904291157,
          -0.017214883084084667,
          0.3285800881314746,
          0.1555871923613461,
          -0.05048195690279941,
          0.05565392981039065,
          -0.10975976013933239,
          -0.06363749866349885,
          -0.1185054047184177,
          0.15859815201942215,
          -0.3220946768877112,
          -0.20935308261605418,
          -0.053766644271959,
          0.23761097664370065,
          -0.041171274609130226,
          -0.2759320446724459,
          -0.054191683625497755,
          -0.19046028282419747,
          0.4009272056710077,
          -0.5235594103737452,
          -0.03518134684902342,
          -0.03855653447874879,
          -0.3485796451058664,
          -0.27285796935587897,
          0.23756845333495374,
          0.23140701695863544,
          -0.22842033289624564,
          -0.30695460458618334,
          0.1307768829189899,
          0.08153947352526378,
          0.30351777274163705,
          0.09180894959159146,
          0.043563795991947006,
          -0.20635774381409244,
          0.008617235264772193,
          -0.3040459270331761,
          -0.16634772894948172
        ],
        [
          0.09503140041380809,
          -0.10720782506102443,
          -0.31714008126663,
          -0.18899521965370297,
          -0.26617274274331776,
          0.061973855648445285,
          0.005713341490586632,
          -0.15979831420094165,
          -0.3473856948274665,
          -0.07995769128154964,
          -0.41610860894836105,
          0.022714490529098658,
          0.05533068404355644,
          -0.1305678043891468,
          -0.3402011207115308,
          -0.17130016012757804,
          -0.24350184114223344,
          -0.14296592080248105,
          0.1804836553052543,
          -0.3940006821937533,
          -0.49536911862235167,
          -0.39685258837761794,
          -0.11217417514198369,
          0.012275959900009783,
          0.21060841138787312,
          -0.05071874686499873,
          -0.041441828534560694,
          0.07649983944508329,
          -0.17027729489135351,
          0.15283102441106183,
          0.053533882827025585,
          -0.10748089289264241,
          -0.019650635771037848,
          0.07559415040441506,
          0.08728295498246025,
          -0.0805956463372278,
          0.052521623248764304,
          -0.054534283484199454,
          -0.35753744257902287,
          -0.1004053952608708,
          0.014094133671779831,
          -0.06695677240094695,
          -0.49736881967265967,
          -0.3664127856856263,
          0.0795877674960101,
          0.2709421108877143,
          0.04788233492882836,
          -0.11054885883252014,
          -0.015287106018040616,
          -0.19266350242702143,
          0.136417538486,
          -0.33516710855966014,
          0.1036330027615955,
          0.06241659587137411,
          -0.20678269326107215,
          0.07021717349192899,
          -0.1963211620344084,
          0.35404712986772663,
          0.1379495287533267,
          0.11636042395334391,
          -0.21605452690235327,
          -0.021258021138596175,
          -0.18950869417491303,
          -0.2406577035168232
        ],
        [
          -0.0370214760509766,
          -0.31200705128236983,
          -0.08642631486332172,
          0.024023757073322025,
          -0.057983577382608745,
          0.04935566859806362,
          0.11622575902262312,
          -0.21137432827345456,
          0.03211532061435477,
          0.12598943704097595,
          -0.002594465507121055,
          -0.2716365198839612,
          -0.032658778457950274,
          -0.2037187086458291,
          0.04144295904381769,
          -0.15923093942877264,
          -0.05702589634028793,
          -0.16310738381957407,
          0.04925197871308882,
          -0.11526917076548933,
          -0.5319651421329243,
          -0.013931851905418681,
          -0.06532317758101962,
          0.010543975258897264,
          0.013832974453016799,
          -0.017099515842590715,
          -0.31257176815586296,
          -0.0970375824879554,
          -0.05048365543273252,
          -0.06671385054286108,
          -0.08980681549394785,
          -0.16441245201908541,
          -0.06092284578349938,
          -0.2839790705561794,
          0.26025558868040055,
          0.12829239655907376,
          -0.0681886415684083,
          0.09112983189334198,
          -0.29436223575666776,
          -0.1702328925699747,
          0.03191163385299128,
          -0.011242979852622561,
          0.019538875057298354,
          -0.3103080783741814,
          -0.07007018012384443,
          -0.06448665458830088,
          0.2016799323440279,
          0.272554814975392,
          -0.05005272074121702,
          0.22703116406043142,
          0.19223539731364114,
          -0.062473190369849343,
          -0.11568597033649289,
          0.14044362114179593,
          -0.19653566364062003,
          -0.05827945926054651,
          0.10898140557909207,
          -0.06965736124625461,
          -0.2100458087346376,
          0.09188463571325237,
          -0.5879567055264728,
          -0.2982730785299772,
          -0.1672481721508794,
          -0.2226714881800676
        ],
        [
          -0.24523352518421507,
          -0.0939310867663724,
          -0.09640492361480547,
          -0.07529873199906759,
          -0.34167067033380083,
          0.10561695244519116,
          0.12646144685187327,
          0.4297149328653338,
          -0.18737005882799246,
          0.2916816258786065,
          -0.07896421446502128,
          -0.09729246130215408,
          -0.1583312287584196,
          -0.15489535048835976,
          -0.027712149766871884,
          -0.2126859150679394,
          -0.16751780015764767,
          0.12206713570341966,
          0.060808086064574614,
          -0.40590674017400064,
          -0.021512507070806573,
          0.3285001513854676,
          -0.23503609407016968,
          0.01162032132962175,
          -0.16448345563579245,
          0.33218193528239265,
          -0.0489915980605414,
          -0.19955303897196147,
          0.15485682922860802,
          0.01777643787617901,
          0.20147555842602832,
          -0.3036172052871649,
          -0.18744622392110308,
          -0.2095673447637801,
          -0.07227267298829247,
          0.14689262509388534,
          0.0022341384802526806,
          -0.41277543837195924,
          -0.1167293769324249,
          -0.4246730790488665,
          0.07693107837860662,
          0.054193969848249736,
          -0.005074696069091864,
          -0.21285337348649888,
          -0.3535707924736052,
          -0.06502335281693686,
          -0.10719963936344905,
          0.3782610699582416,
          -0.10785080505242779,
          -0.21334532330809983,
          -0.335567436011902,
          0.47991049986666,
          -0.00046971801006511865,
          -0.1411336722218486,
          -0.03398891923908453,
          0.18059683395887174,
          0.04692366402371846,
          0.014679352831914218,
          -0.05265501595260545,
          0.03438345809577701,
          -0.3963705620172133,
          -0.12378029741777116,
          -0.17391369051913663,
          0.12070553611270672
        ],
        [
          -0.045049513417744685,
          -0.19563103284447875,
          -0.041886020957252766,
          -0.007052517073151571,
          0.027659808721083527,
          0.13444325869476612,
          -0.345293666544222,
          0.14507736009561015,
          0.2054138047874113,
          -0.04343105524505817,
          0.1822850144597407,
          -0.2136110297438066,
          0.08794038871948885,
          -0.20774971854927532,
          0.2095199381290118,
          -0.2018442969966533,
          -0.24669227671993568,
          -0.1203605716424942,
          0.02641528761462718,
          -0.12913499528566194,
          -0.28159198990824474,
          -0.11944871490351978,
          -0.15454934156588115,
          -0.09347095873093467,
          -0.42376545080010103,
          -0.187492196718663,
          0.07177414001655653,
          -0.18391118491980707,
          0.08992641288027077,
          0.11210085604595106,
          0.18524261904724576,
          -0.1932201720180122,
          0.006034308530237168,
          0.2959911088722635,
          0.2672809142285402,
          0.1785337699737306,
          -0.085107200222766,
          -0.3208313753510202,
          -0.12283469612324023,
          -0.3859059779153097,
          -0.36308784954003515,
          0.03617557503499344,
          -0.10985319794013162,
          -0.31230496466201507,
          -0.38677358537637896,
          -0.1276759887005359,
          -0.05110810184992373,
          -0.09873746046125051,
          0.27242209396963524,
          0.2793330395308068,
          0.0954395931872252,
          -0.04947563696001054,
          0.08155122411592773,
          0.041428306257711774,
          0.10386392312963594,
          -0.06158715605398075,
          -0.05098036268597487,
          0.09187261106550647,
          0.06404777706789036,
          -0.11051230097216617,
          -0.11098843721860893,
          0.14100863874242825,
          -0.5907073666130933,
          -0.17538145550936796
        ],
        [
          0.062106585474169085,
          -0.008859832251238453,
          -0.15418719830047287,
          -0.08857416358607811,
          -0.4074386539489324,
          0.11075670126848011,
          -0.09860868276729196,
          0.06389581454217536,
          -0.010663557521646288,
          -0.14505552836171007,
          0.16681304228874444,
          -0.26444449437314654,
          -0.2078413175340788,
          -0.34751032018133576,
          -0.0795113160304714,
          0.05903479158698859,
          0.030155508481689353,
          -0.16234294067005878,
          -0.053066921503839175,
          -0.11769233392683988,
          -0.01569743268352337,
          0.22398721597084625,
          -0.16936267775057556,
          -0.030609823187805696,
          0.016476015611002384,
          0.03128017237070932,
          -0.0320936391775134,
          0.08309472301312719,
          -0.04283139786741647,
          0.008310305497918996,
          -0.2554858010813457,
          -0.221081728707908,
          -0.18198004682416527,
          -0.1694147242633686,
          0.0064579879992231635,
          -0.03292222735728631,
          0.44571412797521814,
          -0.012596008331422742,
          -0.2820745526353628,
          -0.36931453426458355,
          -0.13339079988807248,
          0.08811804929666198,
          -0.14996049660118255,
          -0.26016111098762207,
          -0.232926342079048,
          0.25744313566279564,
          -0.0113431628100423,
          0.11640956865495503,
          0.1507775562110058,
          -0.17845242463001507,
          0.0606819105838202,
          -0.13977318696474714,
          0.013409261530682316,
          0.08830089937094847,
          -0.4240713668139954,
          -0.30121221869154774,
          -0.24046159981281134,
          0.09675940066741658,
          -0.04424109614642653,
          -0.32336424219037796,
          0.012455720706403602,
          -0.061015233674682874,
          -0.24545082433175985,
          -0.1515108826162257
        ],
        [
          0.13371762856318903,
          0.17108238027740125,
          0.25141267335759776,
          -0.10743725310881334,
          -0.3198706609442666,
          -0.0973956504178422,
          -0.1299308418629337,
          -0.17575678881223578,
          0.08353146717001081,
          0.009713709611295578,
          0.08461326196361892,
          -0.017233530056988435,
          0.1165968297661223,
          -0.11603791235182641,
          0.013540277551082204,
          -0.20583525930337532,
          -0.1135536851501401,
          -0.09103119506719343,
          -0.08099583960766878,
          -0.09512309705025039,
          -0.23115376427645667,
          0.016038811221278423,
          0.1882230375212963,
          -0.2902351482011272,
          0.027588178893007614,
          -0.08976827740490498,
          -0.08361698140274779,
          0.20838405821656844,
          -0.13598073948235623,
          0.3944241130706142,
          -0.1248286536954767,
          -0.05067255994882339,
          0.12656844177960802,
          0.3771159524655811,
          -0.23193783402349577,
          -0.29890716895250763,
          0.04866372815404879,
          -0.09747861576566476,
          -0.23092308614680776,
          -0.15919076924855932,
          0.23808156355843527,
          0.030620184815047895,
          -0.08949042373089816,
          -0.26765786987744533,
          -0.4452400019901578,
          -0.14470461041382557,
          -0.09528762220831233,
          0.1388254494525364,
          -0.08806293704451983,
          -0.20665604778156255,
          -0.48258431500749005,
          -0.08028587260686389,
          0.3181762269400416,
          0.11832478006722054,
          -0.07935010208594644,
          -0.4526848479629674,
          -0.008194359372361553,
          -0.15215860307217974,
          0.12897238328991417,
          -0.18223678822849015,
          -0.3457758914169455,
          -0.1919991486399707,
          -0.04074743497229105,
          0.012977438055123717
        ],
        [
          -0.16604651736192283,
          -0.32207875630805194,
          0.1484833441820121,
          -0.14531407686387293,
          -0.38257607632091045,
          -0.23878069862352863,
          -0.5024195713759201,
          -0.21823243559491257,
          0.08729599896156451,
          0.0028483295694389844,
          0.14472433803491902,
          0.17197330648100995,
          0.08843095172332067,
          0.0944673874825569,
          0.33786930441721447,
          -0.8931101245932547,
          -0.058890660674910625,
          -0.1451649214922883,
          -0.036875571353061354,
          0.08227367218996502,
          -0.2659789554890655,
          0.035283802231328945,
          -0.13462232458568574,
          0.09656048090403395,
          -0.04199922209879577,
          -0.18102746235296124,
          -0.12889223226650992,
          -0.03678105477930604,
          -0.1435194531395625,
          0.31758923553916046,
          0.2405879560534369,
          -0.1641019207282391,
          -0.05930389007963399,
          -0.15097216945052336,
          0.19069887100201893,
          -0.15116253411581515,
          -0.151019009060799,
          0.02472819437953151,
          -0.22901303431602582,
          0.18988044683697416,
          0.23986490909083286,
          0.15821857016235033,
          -0.005185083648223352,
          -0.21974056900671074,
          -0.23068529700301973,
          0.23437209631645523,
          0.051079685146030736,
          0.08638620326573446,
          0.05162263121926608,
          -0.19382511179108386,
          -0.15150838160670774,
          0.1292245893695226,
          -0.24740591762282121,
          -0.03466738719160065,
          -0.15905627391038019,
          -0.4687763639056458,
          -0.08665546863567629,
          -0.15527308750956328,
          0.07966026140283486,
          0.05307054521979105,
          -0.20963060304476722,
          -0.09439875807246782,
          -0.06441214985739097,
          0.13750445581975526
        ],
        [
          -0.05348294324168791,
          -0.043173863306168146,
          -0.13361436108191935,
          0.012573934566512797,
          -0.15160855154464087,
          0.004700470775975094,
          -0.15790609612559653,
          0.05254277541153703,
          -0.23386290632545115,
          0.25548562113377216,
          -0.31461094786102206,
          0.09199854228828085,
          -0.2618260385658495,
          0.12472647476572901,
          -0.31940564501954755,
          -0.20514342202861627,
          -0.15563063376573463,
          -0.37017037924108115,
          -0.061608949312047696,
          -0.30556548415898366,
          -0.2476833440103231,
          0.11136626892023282,
          -0.1429687516009348,
          -0.01639521290839691,
          0.05861600441471437,
          -0.036094856096132395,
          0.11252512405666583,
          -0.05920312421424055,
          0.03153616672888037,
          -0.0549480959037994,
          -0.44638851990655987,
          0.04680670748495049,
          -0.011053601380738565,
          -0.20004384744374945,
          0.41446585530051216,
          -0.3858988554215769,
          0.13863602020677154,
          0.22992009170585465,
          -0.06490209141596061,
          -0.30327743809794905,
          -0.06152656742339238,
          0.1983751135248784,
          -0.18670013760613377,
          -0.3904990719225295,
          -0.17000840830706948,
          0.16857152295127054,
          0.1145567442283105,
          0.4495739105192938,
          -0.10763530494239376,
          0.2096615134383332,
          -0.29623799020225977,
          -0.09111234236150749,
          0.11720634271167206,
          -0.28715552015994056,
          -0.18044842565193497,
          -0.2780377317235954,
          0.01220567197988731,
          0.03312800831204637,
          -0.358822345908346,
          0.000934505986834852,
          -0.37385000292524945,
          0.06015865595342958,
          -0.42486474279332354,
          -0.02083065530086015
        ],
        [
          0.03551892911163656,
          0.03929503508847449,
          0.05383641083424684,
          -0.15226028539654649,
          -0.37668583420603347,
          -0.3225751716736596,
          0.31215939708569374,
          -0.13889036096525315,
          0.2795994677429741,
          0.3775336738873307,
          0.0771368597791295,
          0.02669884285941075,
          -0.4548160622491657,
          -0.2401239736587907,
          -0.0013712628191539416,
          0.005209231811755469,
          -0.15059226664902892,
          -0.36039438981744143,
          -0.3312345686734929,
          -0.1882364823029346,
          -0.3029599023826312,
          0.021915362903212998,
          -0.03556135897848169,
          0.0012710141613670343,
          0.12042300051481891,
          0.12021269544649048,
          -0.022963388498017146,
          -0.01635629282042834,
          0.10338773111751776,
          0.3158520428558172,
          -0.18869690235060757,
          -0.18921236117465762,
          -0.08504827120322067,
          -0.12402348904562775,
          -0.06580565705208563,
          -0.17633529081221772,
          -0.1346159534383594,
          0.010959190384848026,
          -0.4003309853646735,
          0.02415955777970338,
          -0.12010949282574129,
          -0.3063640635049484,
          -0.27623636056851997,
          -0.30737665012853366,
          -0.349448635156231,
          -0.034077243169894564,
          -0.29693616238695736,
          -0.1992473479134372,
          0.19636534422320254,
          -0.13283786580597218,
          -0.0008985974522065951,
          0.011288139777727153,
          -0.019829425827744624,
          0.030619817224335273,
          -0.140289243013567,
          0.05852773447967248,
          0.0864371297269862,
          0.03175795961555719,
          0.12954716031835825,
          0.06588407120668055,
          -0.31959512693090586,
          -0.09063986915509852,
          -0.3332199386552448,
          -0.304293051911422
        ],
        [
          0.27040478932898443,
          0.2590864451254046,
          -0.01613220456045624,
          0.23678330739165032,
          0.2856517392299313,
          -0.11063380411858047,
          -0.29660333772101494,
          0.044079753928655735,
          -0.4586255539615309,
          0.24777771781072766,
          0.07061068105081254,
          -0.14571874320517303,
          0.13530314272730481,
          -0.05563023754910381,
          0.03905018795815169,
          -0.440736243503232,
          -0.1910494424841561,
          0.05184687852874761,
          -0.08103884059570496,
          -0.3074104879511123,
          -0.2790895302396825,
          -0.14837842657003414,
          0.003963792643620601,
          -0.03747580000410351,
          -0.3238523077787816,
          -0.05542422828560878,
          -0.1361630107144839,
          0.14343668984649002,
          0.08008732581601014,
          0.21453242012895907,
          0.10266994776677776,
          0.08923652467871405,
          -0.13000267313210878,
          -0.2662463652731978,
          -0.3538532876193412,
          -0.2573636130861808,
          0.06944056502045041,
          -0.4063727290753053,
          -0.21225704511429566,
          -0.4058576423947138,
          -0.239190446570759,
          0.254054697139217,
          0.035368206744974234,
          -0.5770694868456215,
          -0.5849068091458278,
          0.23716949173367885,
          -0.08668657004489708,
          -0.09832590088233997,
          -0.16393415453790763,
          -0.2183228457070499,
          -0.02975675634410514,
          -0.22502534956516002,
          0.018693872770082855,
          -0.10601292773633397,
          0.014876944904970211,
          -0.1570450387771511,
          -0.31444761038847424,
          0.044309442944270395,
          0.18225349933495524,
          -0.34141454639381075,
          -0.20197699188012935,
          0.3041720719954667,
          -0.21505490998244153,
          0.08486430170114398
        ],
        [
          0.06898769439086441,
          -0.18643468143055225,
          -0.18923672676536657,
          0.004304261432519697,
          -0.22964706375506072,
          0.16055039693914827,
          -0.3988343087659679,
          0.06564398830340445,
          -0.1528890809419058,
          0.09521846467726666,
          0.15352364078433683,
          -0.011886267649607075,
          -0.08000658332699366,
          0.2715950169553558,
          -0.41765025406366507,
          -0.06660638128775917,
          0.38461892730915176,
          -0.7359059971091455,
          -0.1552396725219277,
          0.10354236364021087,
          -0.2616069908053817,
          0.12527498119380268,
          -0.08166930905133656,
          -0.09707593860503468,
          0.12534609170025604,
          0.05164561325812492,
          -0.23857722072782883,
          -0.16255829301036964,
          0.3434984190579667,
          -0.012829744590209741,
          0.03144968604826072,
          -0.5348078250151207,
          0.2409350486738909,
          0.24790753590058653,
          -0.15474018647223334,
          0.2519667942424148,
          -0.09307275285300151,
          -0.20764285177168262,
          -0.23876669036255269,
          -0.13196824260199053,
          0.3151197346307934,
          -0.010644657826888686,
          0.03879366056174713,
          -0.4574012734343943,
          0.039647808094901725,
          0.07279397366267161,
          -0.3944631016398364,
          -0.12484180031471445,
          0.021176200691740175,
          -0.46323552597806084,
          -0.13580788155346604,
          0.14771637454191655,
          0.04303493645015291,
          0.04900205323070192,
          -0.34871374142224304,
          -0.11723582130653355,
          -0.08298681412780023,
          -0.04126977385127747,
          -0.2664040445364309,
          0.22647352234759896,
          -0.14749368619810965,
          -0.05973722671621634,
          -0.18520754989271937,
          -0.04953004293506858
        ],
        [
          0.2775002684827376,
          -0.18354106800953207,
          -0.3290373302473106,
          -0.007598419542648078,
          -0.4123636959147765,
          -0.0029475464792341477,
          -0.10697772847914698,
          -0.018947479884531913,
          0.05000490422489113,
          0.2171542520041406,
          0.17340925491876566,
          -0.16613735312789832,
          -0.024505746874344526,
          -0.5750428713351757,
          0.1372107163756151,
          -0.4534333527399245,
          -0.19408852939846305,
          -0.21289379098264383,
          -0.20462845853760295,
          -0.22002146705036973,
          -0.051837261956926575,
          -0.32150052102774207,
          -0.09186705294944017,
          -0.0218234012119828,
          -0.03827287173091457,
          0.11181852948402952,
          0.022670880129592605,
          0.2179794837302337,
          -0.22023626242679653,
          0.05568135564317021,
          0.051334226604314845,
          -0.08823339828069868,
          -0.10918956678951536,
          -0.173809319712779,
          -0.27086015429034926,
          -0.018336695077874495,
          0.3514789297474837,
          -0.0788316185563519,
          0.06546918109770927,
          -0.43423435220676126,
          0.13771732844109402,
          0.31845969687861836,
          -0.06978530586561119,
          -0.11326996447549263,
          -0.263206393344679,
          -0.025992600887148515,
          0.030260563898105372,
          -0.03827677020513106,
          0.008688175264304463,
          -0.12096846485629073,
          -0.018186950135858814,
          -0.3236167952843117,
          -0.1601205941653201,
          -0.21689485534737196,
          -0.31332799832775504,
          0.12170641292315271,
          0.22441276603885082,
          0.16420945557088978,
          0.1174088023527864,
          0.023108246800454927,
          -0.21572663268834028,
          -0.16631260311124912,
          -0.26262611010614295,
          0.00557956551380342
        ],
        [
          0.14049702428096164,
          -0.20547385043834648,
          -0.14209799582118324,
          -0.18958357850861468,
          -0.17909052447846832,
          0.09364105369336931,
          -0.2433026784365805,
          0.12433229704221874,
          0.016926302099979827,
          0.08585389584924953,
          0.030230139713736084,
          -0.28050881242985104,
          -0.11746633599950855,
          -0.04333921856544269,
          0.1405699350208115,
          -0.032654288346270925,
          -0.074607201990552,
          -0.22385519609112642,
          0.2985888867684562,
          0.19865774950664628,
          -0.32982592017146795,
          0.00004898001099468214,
          -0.1515355045261217,
          -0.1620523042679687,
          -0.12454733221427426,
          -0.13089097033426267,
          0.051239262440443856,
          -0.05449577393318777,
          0.07575364955690328,
          -0.12439594144991974,
          0.06451766582126786,
          0.07863558617961755,
          -0.08333319789708417,
          -0.20928301958194917,
          -0.2991129263314302,
          0.35200683381763004,
          -0.27941679689938087,
          -0.023763042519673587,
          -0.3346567023211032,
          -0.2171732951492784,
          -0.21832627064155566,
          -0.05763973368442033,
          -0.17311660496730513,
          0.07129624543538486,
          -0.06834862630239559,
          -0.22916545243149153,
          0.22870046831249452,
          -0.1972129361876917,
          0.16650195833454198,
          -0.27774818751585206,
          -0.06698845216838126,
          -0.16106912637494014,
          0.09305418256063193,
          -0.15494428578647162,
          -0.48547078527922394,
          -0.0891582466736868,
          0.4762045700621312,
          0.053402882927677094,
          -0.032034549464074864,
          -0.010731821248298018,
          -0.3593427058329403,
          -0.011670387286097325,
          -0.6386783366056854,
          0.3609137675425209
        ],
        [
          0.16418590980608244,
          0.003833944431181127,
          -0.011153559188355951,
          -0.0928531797529507,
          -0.47902620537390106,
          -0.006777915702677876,
          -0.12104509508626446,
          0.0664966396208479,
          0.017620504802116695,
          -0.05855319025316259,
          -0.07670396614579839,
          0.15404988229489597,
          0.1790271805035484,
          0.2774578310192947,
          -0.2224046040585319,
          -0.15128542145810825,
          0.2973519297859714,
          -0.15889019152363262,
          0.01605584014415972,
          0.19975986016958525,
          0.03917951803148205,
          0.08458545350980654,
          0.0804993840845241,
          -0.13225254586039734,
          0.11028025123173293,
          0.37991786924641113,
          -0.11461376445499243,
          -0.01072122930775717,
          -0.0006620814807394352,
          -0.33615645646875614,
          -0.20678013180327703,
          0.049618830043775035,
          -0.0903921303744141,
          -0.09819885648579796,
          -0.16043902251570272,
          -0.24942637873967946,
          0.21252966670511225,
          -0.21866284909177594,
          -0.16006645428058666,
          -0.3083227309493696,
          -0.13197939164550176,
          -0.13800060003928558,
          -0.09998133170379954,
          -0.764271640438913,
          -0.14095458857390927,
          -0.05148571811648221,
          -0.37093796698067794,
          0.12384361251889794,
          -0.26554788666548956,
          0.008392842593628673,
          -0.1043633007572566,
          -0.2066733469272737,
          0.08310527833334483,
          -0.09229461670377835,
          -0.2926906131588349,
          -0.42302738290374486,
          -0.0023415874598745577,
          0.1330890466021805,
          0.2330256683119053,
          -0.4591320375171606,
          -0.22040512137112822,
          -0.1441436495168037,
          -0.4904192868256544,
          -0.25824602828317544
        ],
        [
          -0.0042917323829906396,
          0.06440310544542469,
          0.08954104764314627,
          -0.05338356071748646,
          -0.2107198884413503,
          0.05823673364483744,
          0.0888073725975615,
          0.14119607102462214,
          0.2508981662328469,
          0.24009225000805479,
          -0.1308425480839259,
          0.06915319971659459,
          -0.42036612422651404,
          -0.0708460839002401,
          -0.5158630876369596,
          -0.28281033551485646,
          0.010892547634824286,
          -0.08089823847793334,
          -0.0523528943620152,
          -0.18888252119732393,
          -0.28530448188183205,
          -0.3036147778469862,
          -0.2923718578768296,
          -0.016259860932478654,
          -0.09226053262934444,
          -0.11356229507898884,
          0.023987122123514403,
          -0.21335915915145717,
          -0.20276509017338368,
          -0.061519774432661406,
          0.10257917088490771,
          -0.13295085162912065,
          -0.35162021126680226,
          0.0734822566897792,
          -0.07441840542738908,
          0.15773157421783596,
          -0.004793815096045123,
          -0.09964497935858554,
          0.002154202134718831,
          -0.11469305543573621,
          0.08511772510921459,
          0.1965676080760977,
          -0.4302477470722486,
          -0.4783544265277455,
          -0.3079028845162034,
          -0.05037639243289602,
          -0.27619848911302486,
          0.358978336277755,
          0.0592151060036319,
          0.04370683717494706,
          -0.04903375158345439,
          -0.24577598397475164,
          0.027020944031032633,
          -0.13021018961095343,
          -0.1830897232974052,
          -0.2807082531396072,
          0.11821942639888663,
          0.0009564554323011371,
          0.05551620596715815,
          -0.48146187890423997,
          -0.3327102982412574,
          0.18892206197058714,
          -0.19033853528125666,
          0.11960695670257343
        ],
        [
          -0.009275655450233834,
          -0.2340168176416311,
          -0.18911738387543045,
          -0.06358841283897815,
          0.05691189280269603,
          0.009787290878730023,
          -0.17532227856655874,
          0.14452438163900014,
          -0.021359911262054467,
          -0.21993350887059723,
          -0.21152729149755908,
          -0.15211934901730573,
          0.2127831859688917,
          -0.3463531816874085,
          -0.20337408160494672,
          -0.23464514081826804,
          -0.06723896600576734,
          0.1402825617446193,
          0.12403131476610037,
          -0.026957708615265644,
          -0.34741478815329924,
          -0.31397010565421957,
          -0.001232189434214582,
          -0.38414808724533095,
          -0.1295532120473629,
          0.03623710457495457,
          -0.23002700607558527,
          0.3082542449983026,
          0.11236458377374008,
          -0.05945645132070825,
          -0.12467408337304346,
          0.2655876074744687,
          -0.07401901165145033,
          -0.0364456325785964,
          -0.27652829100923626,
          -0.09501558986585414,
          -0.42618864234165843,
          -0.2955815316624375,
          -0.4758220067352145,
          -0.24153794644535997,
          0.20580671084357274,
          0.23662369438408104,
          -0.08353388901869244,
          -0.43180024723560095,
          -0.261220951502646,
          -0.25995859392438875,
          0.10800545194837612,
          -0.2198373518956001,
          0.03355970999188713,
          -0.2012156880521264,
          -0.024093709719327467,
          0.06279255797629715,
          0.08634938635221844,
          0.08939668266592564,
          -0.28344012821823206,
          -0.1162793889326618,
          0.0103518630266182,
          -0.13406855473573082,
          -0.37305081988887173,
          -0.32338289276865534,
          -0.26366464232287357,
          -0.0027650209466924254,
          0.07037186223200335,
          -0.06695754144312273
        ],
        [
          -0.16277869504076453,
          -0.06237274496467954,
          0.3748300289463108,
          -0.01137858045395123,
          -0.4440634755945938,
          -0.2839580643345816,
          -0.09714823905740044,
          0.5387070555945982,
          0.5268620315445176,
          -0.0810569058421479,
          0.3206047037824393,
          -0.15282198880219952,
          -0.3749582993954911,
          0.10816276317004998,
          -0.2992337749012759,
          -0.22464658620267475,
          -0.11479682325431229,
          0.025705114589266036,
          -0.32411839329528247,
          -0.25591794689274877,
          -0.3403250629331418,
          0.1668243592522342,
          0.223950356863021,
          -0.032235505367615686,
          0.07218168852536533,
          0.18897495134380016,
          0.07171642306218433,
          -0.1193637198136337,
          -0.19150283385631212,
          -0.09056984543634858,
          -0.0010639824215715372,
          0.02130917690649692,
          0.02992906611240201,
          -0.10166154804493688,
          0.10527243487624345,
          0.0381522010502348,
          0.20398691021426407,
          0.39377863495013704,
          -0.13699916359910635,
          -0.09137602351765675,
          0.08025002549866686,
          0.04559033199053066,
          -0.07334088622243726,
          -0.3599802853107317,
          -0.38202291019055934,
          -0.05971821137416897,
          -0.06442287478107278,
          -0.021454633571376818,
          0.1549134218681135,
          -0.3248824155765976,
          -0.057440406896851696,
          0.10595151884186801,
          -0.06552863870914095,
          -0.013763551956144737,
          -0.5240026341647849,
          -0.08005882194999644,
          -0.031853740421672334,
          0.30630143534105525,
          -0.12591019232739253,
          0.3080460528944329,
          -0.1179684361860894,
          -0.10464228996863731,
          -0.56397104699394,
          0.07985192347109651
        ],
        [
          -0.15754722731053936,
          -0.05438142099559224,
          0.015787732287740986,
          -0.34460031266402985,
          0.05495862386683873,
          -0.09025229207176269,
          -0.36729763008909383,
          -0.006040131925682786,
          -0.05128265963903702,
          0.09099681275365747,
          -0.008262604237194984,
          -0.1318942596095041,
          0.10483677788207334,
          -0.3039520433580997,
          0.01709322866054551,
          -0.06960631806755463,
          -0.5068769105224266,
          -0.21600717372951211,
          -0.05850457940254678,
          -0.5899014000065552,
          -0.10788978215360097,
          0.07288753748256616,
          -0.11836147963967877,
          -0.146356208155805,
          -0.16615369124584728,
          0.031924517765142255,
          -0.05667612949551877,
          -0.13294452388707192,
          0.11333255366174634,
          -0.4450773272251817,
          0.15427161487546112,
          -0.33682823071460466,
          0.25712097267110623,
          0.03214927524944996,
          0.01468459409706493,
          0.24886397725773055,
          0.08531088019825377,
          -0.4472119873937967,
          -0.1978410067020028,
          -0.31482870543652475,
          0.27847795685118126,
          0.15413823711255212,
          0.21247232146885106,
          -0.004965175605998514,
          -0.3854993731687848,
          -0.019043988187880785,
          0.3451902779544668,
          -0.09145081727356708,
          0.15496224473715262,
          -0.06111042293682065,
          0.274696423845294,
          0.254828907266091,
          0.026106141796126418,
          0.0304851271065777,
          -0.21872726533102974,
          0.27655277124930083,
          0.061854011296529836,
          -0.023499915410312395,
          0.06355055100667678,
          0.12786110580257068,
          -0.5845423640732669,
          -0.23561319983133633,
          -0.19949071935982482,
          0.06141335629781806
        ]
      ],
      "biases": [
        -0.5240106042667694,
        -0.41721158292303623,
        -0.42874999192418317,
        -0.5255116936171137,
        -0.4911339165409197,
        -0.48713014643627467,
        -0.6366041606816245,
        -0.5297398320716649,
        -0.4745328259883806,
        -0.40870280801295866,
        -0.4414431214306757,
        -0.4064201838143796,
        -0.6031890244256607,
        -0.4781699862619969,
        -0.5524389326793121,
        -0.4616522037478493,
        -0.406611629532489,
        -0.49750502472198893,
        -0.4467285451222642,
        -0.6789699288954163
      ],
      "activation": "sigmoid"
    }
  ],
  "decoder": [
    {
      "weights": [
        [
          -0.0030249220979264475,
          0.343672322479335,
          -0.01874539690974495,
          -0.19894637545692292,
          0.14905525264516917,
          0.044800005501085954,
          -0.00955243651999172,
          -0.10391521089998432,
          -0.18057988583989174,
          0.15028922225737507,
          0.0765562030516385,
          -0.0839359956829608,
          0.14098671964249163,
          0.15826806213666098,
          0.04643385422150534,
          0.3026410386304269,
          -0.08833124034713918,
          -0.39019406011084795,
          -0.317823173078029,
          -0.08955099356288876
        ],
        [
          0.415085865528395,
          -0.371206849686063,
          -0.27009464175032244,
          -0.050166500367124965,
          0.2478182853913852,
          0.2222772193157142,
          0.24597993344325858,
          -0.05786240229758973,
          0.5143186551236516,
          -0.3070704241851712,
          -0.10856200279559258,
          -0.44984547499770106,
          0.2677018821237285,
          0.26842424063014647,
          -0.1515317519950157,
          0.17516414245871595,
          0.09527861375382474,
          -0.21656883982983333,
          -0.18823838464179196,
          0.11272939570550904
        ],
        [
          0.07059264041583564,
          0.19318277548602333,
          -0.1562909389875554,
          -0.08262770668246196,
          0.13357186287831596,
          -0.2195836665456911,
          -0.6012897987131011,
          0.010441617606155994,
          -0.12849506859712978,
          -0.33592420951122975,
          -0.3833411989676295,
          -0.1154888040215457,
          -0.3183266584146859,
          -0.4626876409880275,
          -0.02951838808517848,
          -0.16744924723731264,
          0.7474787092430996,
          0.30312337851891746,
          0.45478551729672434,
          -0.2916595541263213
        ],
        [
          -0.1581011182207164,
          0.07550420404252667,
          0.2838509008543862,
          0.1697946526312631,
          -0.058376415316838015,
          0.061001892649929834,
          -0.3254744718349562,
          -0.2055073513859706,
          -0.4041192947131675,
          0.12381304208731887,
          0.26779688480083735,
          -0.5040785059001801,
          0.40860571773600907,
          0.26162896994457363,
          -0.7331572114340242,
          -0.42692326683096415,
          -0.15151458214327648,
          -0.4999165933579763,
          -0.07196999614037036,
          0.3632845278469131
        ],
        [
          -0.5222077795525527,
          0.08253982153538075,
          0.11134347598325862,
          -0.12012239190417033,
          0.1725850979306297,
          -0.5356261782967051,
          0.29175990523632894,
          -0.00952424471106136,
          0.2119103802564868,
          0.02713702015124689,
          0.3310230660058697,
          0.012415355175090492,
          0.3899456032613689,
          -0.4508552033164529,
          0.017259634364954847,
          -0.05306213831542616,
          0.1581611705883927,
          0.33325327300592816,
          0.03831381181708891,
          0.47782975370025427
        ],
        [
          0.2474170151900906,
          -0.2660665470145113,
          0.1587632159250755,
          0.15770552373166108,
          -0.47537675906097493,
          -0.2890043076463007,
          -0.19866305100760379,
          -0.019272058271485645,
          -0.151139055352305,
          0.05386309237480896,
          0.5948893404531641,
          -0.3926278003082064,
          -0.029073947059684198,
          0.06319980218152974,
          -0.7739489180730161,
          0.09883856481402672,
          -0.22938913293046326,
          0.29135606217790694,
          0.1833469449650219,
          0.4732158816476107
        ],
        [
          -0.1935286060958866,
          -0.1885308650943182,
          -0.06343719412957124,
          -0.0015019434445232892,
          0.2883873778594246,
          0.2710665141535308,
          -0.39949652467895086,
          -0.26075796711994237,
          -0.011991785762664482,
          0.11669940761830969,
          -0.1435690402750878,
          1.115605998039516,
          -0.5232838866842977,
          0.1406635088582823,
          -0.2520762636489628,
          0.04641000942724756,
          0.3184894439911445,
          -0.39678708191580087,
          0.6365570656291871,
          0.003586845832065495
        ],
        [
          0.14798198013908864,
          0.07902966743245643,
          0.12226302270344311,
          -0.5469700858047974,
          0.20140693343598942,
          0.022120499998159526,
          0.43971410336048977,
          -0.23821840509957706,
          0.21436657176546606,
          0.07150953031882985,
          -0.04908767724279499,
          0.16468291205801233,
          0.6430325990814449,
          -0.2640550724700929,
          -0.06119081524485499,
          -0.6516773400378,
          -0.103962859941535,
          0.1192809995537724,
          0.27491075997623743,
          -0.5101868249365258
        ],
        [
          -0.03848928774977369,
          -0.3636384656537656,
          0.012298114750159976,
          0.3430347994000598,
          0.30371982039153944,
          -0.28311919737952873,
          -0.15963145051989225,
          -0.08630597915319577,
          0.5492420541729824,
          -0.03225022336637737,
          -0.13410610323959993,
          -0.19613713369615857,
          -0.2860663712767282,
          -0.0038725641013454704,
          -0.2363200615790548,
          -0.2549799241324941,
          0.542294170656533,
          0.039938781258033636,
          -0.28379096440525853,
          0.2959504265386729
        ],
        [
          -0.2544416936490432,
          -0.9986481863285934,
          -0.2737765848824083,
          -0.08702457963878131,
          -0.057522546862985205,
          -0.05962804150510345,
          0.15025764017632515,
          -0.3289274536008855,
          0.1381854952311849,
          0.09334184769608128,
          0.0468813720658023,
          -0.37427597617862274,
          0.44247814178239653,
          -0.1972429505675156,
          0.16981321828150908,
          -0.1380894374541662,
          -0.6375565535588896,
          -0.2084689978283332,
          -0.25521467797705266,
          -0.09008596664206302
        ],
        [
          -0.21890381612145624,
          -0.13786117715840535,
          -0.30653388028150924,
          -0.1421761713355302,
          0.15422385721008253,
          -0.34208466322407644,
          0.8930180676896186,
          0.2870484185849475,
          0.3107312023470738,
          -0.029815759334700154,
          -0.10668103335668723,
          -0.4149769680518959,
          0.10010474325269678,
          0.012740507984302792,
          -0.005673458274642904,
          -0.5116550370768529,
          -0.15007719766123656,
          -0.24405728649418024,
          0.4423695442975249,
          -0.5651133375554345
        ],
        [
          -0.12445058675499465,
          -0.3966974025233462,
          -0.031020745700804583,
          -0.1940059705369125,
          -0.5091835421604856,
          -0.20620647214155485,
          -0.05973009927272851,
          0.21519176117902636,
          -0.6145306516149429,
          -0.0719091613296693,
          0.8187776870997401,
          -0.14395884284201146,
          -0.22585287431164588,
          0.3858127510170142,
          0.4055750675942245,
          -0.003450751234175641,
          -0.19880982262144933,
          -0.056707832823184784,
          0.11656048440524969,
          -0.14708302550347935
        ],
        [
          -0.2889645369799585,
          0.21478400793255722,
          -0.20038488608849456,
          -0.40342409491919023,
          -0.08356848373795422,
          0.5310532755235998,
          -0.47132779405936776,
          0.28637427930744325,
          -0.19938199451356758,
          0.38367744740777576,
          -0.757643267874604,
          0.9169236123475697,
          -0.3363034203399355,
          0.11225772604789624,
          -0.013001325246685586,
          0.29537661904384654,
          0.12353741865815171,
          0.48053628280844346,
          -0.2905055618300058,
          0.19491038008571726
        ],
        [
          0.5465568631452689,
          0.614094996198418,
          0.38017855704224846,
          0.7159964967621373,
          0.18809766435328176,
          -0.35141892459273405,
          -0.2770321380611977,
          0.4521897255646959,
          -0.1890026297373993,
          0.2698458525939594,
          0.40741171855097075,
          0.22814130799856078,
          0.3269837845536495,
          0.21698002429256638,
          0.0585794216883476,
          0.8629117743576942,
          -0.01150672696114051,
          -0.17217790105371483,
          0.7979538163859788,
          -0.11605967306911949
        ],
        [
          -0.1934472454756877,
          0.12597053248196877,
          0.057836474607342044,
          -0.08399874305311954,
          -0.3481303171984335,
          -0.21154080151286936,
          0.0768913665002584,
          -0.25037531437201943,
          0.6607646963715139,
          -0.1006506185659867,
          -0.21230414482171778,
          0.3636313020560818,
          -0.129653603200543,
          -0.20507055964120358,
          0.002973743443022015,
          -0.14517490103088684,
          0.029305763039954403,
          -0.12702173124804783,
          0.33061851107752466,
          -0.20370790447437384
        ],
        [
          -0.044949592928885784,
          -0.39640756435860025,
          -0.6318588144326575,
          0.32132439774526195,
          0.3240157571640241,
          -0.06889027128378038,
          -0.20375297459500655,
          0.25248014477877484,
          0.06951305869100517,
          -0.6601384539814272,
          0.03769173660638978,
          -0.049866574968674325,
          -0.8332234450496938,
          0.6181969254015512,
          -0.17132341059526232,
          -0.07173385137034033,
          -0.17499063877611676,
          -0.04027737485828558,
          0.3229431436305187,
          -0.09504079089595965
        ],
        [
          -0.3090770774021844,
          0.034518761455962554,
          0.5085817291846582,
          -0.2777581898774509,
          -0.46330224049682683,
          0.17641347606407012,
          -0.1710499475722773,
          -0.3303840947746746,
          -0.19048115164675766,
          0.07082891581384684,
          0.08587703269383709,
          0.10228639061546113,
          0.3666779519512609,
          -0.6561685034530597,
          0.01278918547162499,
          0.27581727791820604,
          -0.14194054317124616,
          0.07855302660371824,
          0.6249175421693509,
          -0.0579386566768911
        ],
        [
          0.0810397762126374,
          -0.032525479863043924,
          0.2523290116467696,
          0.5078513354579812,
          -0.44969742826231296,
          0.24441551619805651,
          0.12912104157032367,
          0.16002316749978074,
          0.11786443984709662,
          -0.028245087794900963,
          -0.4271586798568431,
          0.3305027279051201,
          -0.435812581445581,
          0.07288952663977809,
          -0.06003484352559736,
          -0.33858745383011724,
          -0.1811273261471,
          -0.3017181857323386,
          0.0713051947289898,
          0.6722375943337067
        ],
        [
          0.1103586695440855,
          -0.14803654687386392,
          0.4436566832346604,
          0.08903161574282853,
          0.2384199314180084,
          -0.21587691784526916,
          -0.20168445130866341,
          0.02494356876533313,
          0.03564757302767078,
          -0.15068769463197257,
          -0.753110811073633,
          -0.3243745441151122,
          0.05641455399417959,
          -0.5833282523248713,
          -0.1714621767444173,
          -0.023485896399253983,
          0.3268665766789211,
          -0.29327383086735503,
          -0.1440460398005265,
          -0.6502513217456571
        ],
        [
          0.14660947052425094,
          0.10770085964481649,
          -0.07836978894576171,
          0.11477457483567777,
          0.01102632173529472,
          0.3976850110738592,
          0.586743488033154,
          -0.10192115096324002,
          0.09719728648371331,
          0.04828172195838608,
          0.3417432871408125,
          -0.1263791391398712,
          -0.1722596855899186,
          0.10889647565475054,
          -0.2646048780417492,
          0.15303558002167217,
          -0.38609019515549176,
          -0.31906552793039544,
          -0.0026334470188547794,
          0.5426031438695955
        ],
        [
          0.0500949813953758,
          0.2338874364221622,
          -0.5535952849083641,
          0.33189370328400314,
          0.521837647743771,
          0.3443702402939304,
          -0.15037621508580445,
          0.035617588541669,
          0.5844825994030247,
          0.02267174122347714,
          0.6724793290707549,
          0.4727019163987353,
          0.1471110307928792,
          -0.05793729426842412,
          -0.27318912205128204,
          0.3863605728683488,
          0.5470014181015556,
          0.027302374712297833,
          0.19562296756731162,
          -0.020828084463925204
        ],
        [
          0.10887752517206227,
          0.27976243226162467,
          0.4050512145050776,
          -0.18530457481331322,
          0.00378882022477835,
          -0.7925068616001538,
          -0.21910250302475384,
          0.12285982160588828,
          0.08648982190831672,
          -0.20226632171091757,
          0.3821581199466889,
          0.23231265040670857,
          0.6910833572207901,
          -0.1330089935102423,
          -0.15550185837867883,
          0.19377210025776767,
          -0.0718397444108609,
          -0.3405701053996267,
          -0.024870206331589824,
          -0.26931851565217313
        ],
        [
          -0.5664265610146915,
          -0.095375708134022,
          -0.1181935514096024,
          -0.07773386341981456,
          0.04563234326573791,
          0.6054815076210024,
          -0.43930448144588735,
          -0.025217890974898946,
          0.027059412117220093,
          0.3139332378183265,
          -0.09461967209047638,
          -0.21496093677290257,
          -0.16324627822706714,
          0.6462147920118437,
          -0.24235938321955644,
          0.13470297426020678,
          -0.06899598068991704,
          0.4990331245946796,
          -0.16897888679597342,
          -0.3351178159232206
        ],
        [
          -0.23521854942158166,
          -0.18935576375739743,
          0.37214780941693826,
          -0.1669417126451425,
          -0.3578637390482502,
          0.3370186701917488,
          0.15031424689769368,
          0.37089763879981913,
          -0.6657822475681909,
          0.672204214835429,
          0.21106936450759622,
          -0.47225243574311715,
          0.4893139827520921,
          0.019473313090133976,
          0.2472227101474393,
          -0.6364425136229097,
          -0.2227542413505359,
          -0.12520016134154385,
          -0.2504879343899622,
          -0.21542320555407965
        ],
        [
          0.47932476843088867,
          0.2818000372493753,
          -0.09125639542808697,
          0.5771692030000758,
          0.20511175469962262,
          -0.21082741037576375,
          -0.20049625522985878,
          0.01625763657645895,
          -0.20947148805134932,
          0.10871223573914267,
          -0.5463292548217293,
          0.5487803352155779,
          -0.1156626202393464,
          0.20421392247812933,
          0.11567412831502985,
          -0.4534868604795565,
          -0.09738550246315392,
          -0.09866933009362183,
          -0.22940490084489054,
          -0.5707788327480713
        ],
        [
          -0.5914658256099711,
          0.07348172665323607,
          -0.1376682672365991,
          0.0702877756202799,
          0.13419917376704465,
          0.10765644726358697,
          -0.4075704862881025,
          0.19224536595692393,
          0.027921897760065227,
          -0.5891510121532527,
          -0.32751717959556886,
          -0.06061104007870879,
          -0.14332710193399387,
          -0.4044155160406872,
          0.05278577250355885,
          0.8781554531139659,
          0.059202385906894126,
          0.6322122806861884,
          0.2406694066680659,
          -0.7853954282839785
        ],
        [
          0.3162371264575247,
          0.2435406143877391,
          0.07855021303785155,
          0.2308320798209906,
          0.3404554937630151,
          -0.1773299975285077,
          0.09429001757848708,
          -0.03566691872527076,
          -0.010185203840827267,
          0.337333383914593,
          0.2304603326509912,
          -0.4305179200631117,
          -0.2936589623340234,
          -0.08865681621064202,
          -0.06806250021565678,
          0.042933070299238554,
          0.2265109168568378,
          -0.08073624044818205,
          0.28300801055565195,
          -0.4132201783390592
        ],
        [
          -0.14732763355822967,
          -0.4450162434034428,
          -0.017655267177446275,
          0.06329359921283449,
          0.43904868250855583,
          0.5903991280146889,
          -0.5286851964379327,
          -0.16793722352710275,
          -0.3151617820913241,
          -0.17967032348017808,
          0.17388655615764087,
          -0.17230185471996476,
          -0.19066535957935957,
          0.3044989125523904,
          -0.42907346323322576,
          0.22428432222131317,
          -0.06322486795058414,
          -0.28303800758502246,
          0.09531031314373528,
          -0.307241122643388
        ],
        [
          -0.08603975834021205,
          0.2646765513201067,
          -0.2722025077288911,
          -0.09257712040385524,
          -0.21878470325366967,
          -0.17705056842228878,
          0.15857427096977642,
          0.13089073593390196,
          0.00846078074754664,
          -0.007504717002274773,
          0.22269997569697533,
          0.08350347683365916,
          -0.38837968785606486,
          -0.09277652938149848,
          -0.04674225729703192,
          0.12313507079388891,
          -0.2047775818115243,
          0.03497335019140174,
          -0.3480411000356298,
          0.21178797684401823
        ],
        [
          0.1544537396767714,
          0.04635571456362861,
          -0.2580479013382054,
          0.4978331491971812,
          0.41335895245376825,
          0.24745445307148572,
          0.11336773746697171,
          -0.18392602291453403,
          -0.3307410017880701,
          0.047968982921012246,
          -0.12873783056782254,
          -0.35123202354155847,
          0.2374132420034543,
          0.06685577803981631,
          0.16547165571572006,
          -0.3771786472224226,
          -0.7872829756825248,
          0.41461825765924953,
          -0.08058780787082509,
          1.1081880646780473
        ],
        [
          -0.045585444605504045,
          -0.33213049695768393,
          -0.44642689039034666,
          0.17351183530093753,
          -0.2498744575805381,
          0.02621153242873698,
          0.302878644380493,
          -0.28320437036031676,
          0.04056934632531643,
          0.04503427975233278,
          -0.1155222845690704,
          0.07074910157004488,
          0.01177212141713072,
          0.4619126387622713,
          -0.16038721667439906,
          0.014351415351874007,
          -0.49820386825674634,
          -0.027645789559715476,
          -0.508790798957949,
          0.43126608304952085
        ],
        [
          0.19454310175037137,
          -0.07474390132100707,
          0.32737139279749505,
          0.19755402506605377,
          -0.06292379162403065,
          -0.7248465916949524,
          0.19381218981989579,
          0.2884339384345412,
          -0.15376405186860093,
          -0.07333714338052494,
          0.0008421980381355125,
          -0.19104320732023855,
          0.31474544575730223,
          -0.2274934661836598,
          0.15023379554771843,
          0.1635654219803801,
          0.28018472726840893,
          -0.17308454209924173,
          0.18816946285289865,
          0.26483444467292633
        ],
        [
          -0.7748279155115687,
          -0.023882554052592913,
          0.08300920768757224,
          -0.42616803046730933,
          0.03971409907706074,
          0.17610630156298188,
          -0.2137100849949834,
          -0.043801286654487834,
          0.3617118114451232,
          0.4682167819455053,
          0.25931265630573985,
          0.38071236412688353,
          -0.418976707975283,
          0.07033353278566706,
          -0.17795309097498707,
          0.2785847603453982,
          -0.19523120710268158,
          -0.27187594613513766,
          0.1287126351363024,
          -0.2900073700358992
        ],
        [
          0.2876503680415872,
          -0.05228817208126537,
          0.4553624440123769,
          -0.032217205675882384,
          -0.33574093855035436,
          -0.3596246740693031,
          0.46946207746982466,
          0.27044216710647095,
          -0.031402719518957074,
          0.3912317490911116,
          0.4232146540581339,
          -0.16193274201868543,
          0.12282151949243557,
          0.04456337902674671,
          -0.3726826639795403,
          0.4070235878345794,
          0.004752782984095027,
          0.03453107830192827,
          -0.21095491625077312,
          0.6445143150770314
        ],
        [
          -0.2758120876612097,
          0.2724426189586679,
          -0.3070537588134521,
          0.08424189119064772,
          -0.13737803757177178,
          0.14748716432147063,
          -0.23151344138147328,
          0.5367010979539997,
          0.3465603806534365,
          -0.29286124279351333,
          0.1963096058446396,
          -0.3064980716377316,
          0.09564305413976253,
          0.1841802064976103,
          -0.20367928766511445,
          -0.2507689343114416,
          -0.2742247778885115,
          -0.29943493202299837,
          0.03782112724557316,
          -0.8298366519325646
        ],
        [
          0.07452627129848728,
          -0.27490947499947727,
          -0.42758033223280434,
          0.05655290728182834,
          -0.07717435563863027,
          -0.07878295712846199,
          -0.3296355846518624,
          -0.3687682054816105,
          -0.35029615861147156,
          -0.6785792435462146,
          -0.561148945845557,
          -0.06224046330215659,
          -0.8283372014953445,
          0.23807032525155816,
          -0.11158922070121442,
          -0.6426313670595467,
          -0.45454168177613213,
          -0.5882019051477545,
          -0.5967502867540599,
          0.17578370587232886
        ],
        [
          -0.36282108234913135,
          -0.27964621235997916,
          0.2569451228704109,
          -0.4628029428380613,
          0.41987940136723734,
          0.39422751501854475,
          -0.2178188992356671,
          -0.28775439520115614,
          0.3981054171655856,
          -0.1177687266631704,
          0.004184944178756636,
          0.010037186832103825,
          -0.039743118327418184,
          0.02143511794200562,
          -0.0531287815193879,
          -0.20479920403725482,
          -0.5258692414508074,
          0.19343694569995562,
          -0.03736335154959223,
          -0.4387792351620326
        ],
        [
          -0.1384889135947383,
          -0.03845473641495166,
          0.1015204449685728,
          -0.3187290276830049,
          -0.24985170025813033,
          -0.010607549879396976,
          -0.012372770780606467,
          -0.21414471771938653,
          0.05840363003269113,
          -0.5191006963436184,
          0.0681457491758998,
          0.3997379898175021,
          0.06323404997135992,
          -0.17095800399496255,
          0.6373669275312694,
          0.6252782315552448,
          -0.07487993130946011,
          -0.2554491580403963,
          -0.05624375297758087,
          -0.09462756952364235
        ],
        [
          0.27954565410296417,
          -0.03328696727493114,
          -0.07746640472848164,
          -0.3265401598985466,
          0.151279873625525,
          -0.141856531771495,
          -0.06595366792406424,
          -0.008233769218625153,
          -0.29136171456747517,
          -0.2396105215892747,
          -0.03645186269448821,
          0.03143879327961065,
          -0.11258267001433707,
          0.1526456799438571,
          -0.02070797963364925,
          -0.0781938184064027,
          -0.37315485578819013,
          -0.21025372596526173,
          0.1464921705316711,
          0.2319158890383653
        ],
        [
          0.388408295242328,
          -0.36336216181298125,
          0.14270733543637426,
          0.12875632448499133,
          -0.4768640755845434,
          -0.16184370658195252,
          0.0755427077444617,
          -0.5764943376485112,
          -0.16128423699216884,
          0.11896420742243889,
          -0.37222461775938376,
          -0.31837835579700546,
          -0.7071920541337506,
          -0.005828923799913436,
          0.18542033362562133,
          -0.4242455035174233,
          -0.33616879671033206,
          -0.10127083065589038,
          0.5277619865415081,
          -0.05875487271970643
        ],
        [
          -0.4587187496722318,
          -0.2370012382419781,
          -0.14265493118339662,
          0.01924826382535828,
          0.35684644191504433,
          -0.0937106735892751,
          -0.41754874856797003,
          -0.0805181483366914,
          -0.1216434922919391,
          -0.02638057701768363,
          0.24734939568559142,
          0.03705616660482249,
          -0.07695572620365101,
          0.6043062991576572,
          0.26856410443623,
          -0.34514259783821327,
          -0.23403455932799988,
          -0.13366360222777335,
          0.08141223307736566,
          -0.46515420399120666
        ],
        [
          -0.329440521110465,
          -0.06991222328324682,
          -0.7821129396048797,
          0.10581291815098856,
          -0.1921818566625217,
          -0.16440621455462237,
          -0.4481204175069745,
          0.6702093825032339,
          -0.23092668866457564,
          -0.1407253378775085,
          0.13692400124959966,
          0.2489924148871922,
          0.1334744031167259,
          -0.4146868082520775,
          -0.027777600706991076,
          -0.6699298296296352,
          -0.386066439170116,
          0.050463733569232255,
          0.015057524743661906,
          0.09069929660562069
        ],
        [
          0.6694402306872763,
          -0.03600622793018953,
          -0.10752902170865518,
          0.4110476011688434,
          0.18742673106870109,
          -0.6273243769499186,
          0.4516124750776543,
          0.33277785152994466,
          0.3885468872317211,
          0.5208074813107206,
          0.3528866379600963,
          0.15498783821502257,
          -0.4136873637247589,
          0.3441908385772931,
          -0.163338391190649,
          0.11060867831812637,
          0.05385084484621551,
          0.478652567635469,
          -0.10327955667292588,
          0.0389115875305706
        ],
        [
          -0.09570648269159704,
          0.11952345119570043,
          0.2802612877189849,
          0.07075694021952414,
          0.3276810074867774,
          -0.16154132883577266,
          0.43616424120610214,
          0.5026908090951634,
          -0.9322509963419371,
          -0.34739165522202053,
          -0.330111037525785,
          0.02618496406693161,
          -0.260899140874429,
          0.17597139497088063,
          -0.08632280996569103,
          -0.14729404824097897,
          0.03518933684139618,
          0.1647513267687789,
          0.09254813090985195,
          -0.17668618243778833
        ],
        [
          -0.06721961070206671,
          0.6538776806195725,
          0.1255373449921532,
          -0.20696889060923435,
          0.04544709242555766,
          0.09114451140811591,
          0.39761065680079155,
          0.04115496988034886,
          -0.4581583981408321,
          -0.3120427333338417,
          -0.19072370361552976,
          -0.17802353398599305,
          0.4854703996323567,
          0.04731366348099316,
          0.45317331352412815,
          -0.3458440914326542,
          -0.4382351209899585,
          -0.38871513895437293,
          -0.1824967757075232,
          -0.25728107613352974
        ],
        [
          -0.05944105052281862,
          -0.5006777051397434,
          0.26707829081896783,
          0.04984553538519242,
          -0.3676324169799934,
          0.25977344695149945,
          -0.2873419911722393,
          0.09811169444410128,
          -0.4809637213005337,
          0.21077791827135828,
          0.43757287530185734,
          -0.18227647773495517,
          -0.17410619260624863,
          -0.028514972484226866,
          -0.043934874113744984,
          -0.2207987060635196,
          -0.325526845658389,
          0.0747552142212143,
          -0.07465109367403208,
          0.2598732343518094
        ],
        [
          -0.7136110575528046,
          -0.26953452788831117,
          -0.2086486774626915,
          -0.2674894491329958,
          0.03632151622670399,
          0.00872961095630566,
          -0.09000717234833845,
          -0.09127081494434443,
          -0.7440824101052791,
          -0.34090269397620504,
          -0.39793201335093825,
          -0.4718504871737814,
          -0.19239354157269503,
          -0.39050422967987714,
          0.3611117363465063,
          -0.8304525060497624,
          -0.4688135286557218,
          0.4458482895509082,
          -0.24913432983548847,
          0.6070963897990783
        ],
        [
          -0.026296683298130064,
          0.3278644256290262,
          0.05870203689206914,
          -0.1345532240271299,
          0.14750642431654845,
          -0.022966929004475115,
          0.21870854777282145,
          -0.4128896295147739,
          0.04374053191417618,
          0.3421060405648225,
          0.1942108237189362,
          -0.186769227622257,
          -0.687838630368731,
          0.505964615053919,
          -0.30058436266312943,
          -0.01966294653904063,
          -0.020897050511134017,
          0.5209462618098719,
          -0.4390050493415038,
          -0.37068909645790504
        ],
        [
          0.18933450690060163,
          -0.09548798501665333,
          -0.48737475314747236,
          0.2842186501249264,
          0.25844474619477215,
          0.29537041297063127,
          -0.24147046218168297,
          0.1258138819553248,
          -0.4700244714119961,
          -0.526766245285983,
          0.18495824947647052,
          0.19993540635172102,
          -0.19648696759595646,
          -0.5691820424326455,
          0.030806269607832972,
          -0.12196011994285905,
          0.012336093337371784,
          0.16252928851800208,
          0.020857908490751212,
          -0.7167847251504955
        ],
        [
          -0.5880977715904245,
          0.12890351551346302,
          0.32015550998304043,
          0.04965715814080636,
          -0.3696475255757588,
          0.3173233975385034,
          0.4227636075405806,
          0.15731316046306046,
          0.01645096299859944,
          -0.6759578606012483,
          -0.22026806617223446,
          0.5006199005046338,
          -0.3578018489405448,
          -0.4397466617718688,
          -0.22969575862320118,
          0.3353161576914153,
          -0.26277692478084924,
          -0.08684303027106455,
          0.6022596486373799,
          0.4368363999878611
        ],
        [
          0.048194567722004554,
          0.1385958847633192,
          0.8974404589445559,
          -0.0414883372812275,
          0.13955669816087884,
          0.035086194904570274,
          0.16774658712882515,
          -0.5193416875010647,
          -0.05526104991560238,
          0.09326823465943396,
          -0.17533301973381202,
          -0.18716603225929632,
          -0.4569952347578877,
          -0.2093128736508605,
          -0.1106499207455471,
          0.2114349004761193,
          0.24022432514317318,
          0.07444843158289952,
          -0.26249111954358584,
          -0.16112552723948628
        ],
        [
          0.20642945097043627,
          0.03140398972991697,
          -0.15228115867319927,
          0.4863746411429674,
          0.04361992366089424,
          -0.08842088014097275,
          -0.026503638345474666,
          0.14171030502015375,
          0.13795093719137122,
          -0.39809784356473066,
          0.01751065946417364,
          -0.44769130762166615,
          0.013439476943246365,
          -0.09146666634915973,
          0.7013870971616517,
          -0.5313988575963356,
          0.06431075169433213,
          -0.39483028865200087,
          -0.12192852259304794,
          -0.08615024871891183
        ],
        [
          0.3273259426851213,
          -0.39730653047846176,
          -0.0683743311829345,
          -0.1420076298522233,
          0.9535800527212412,
          0.0021252105448087426,
          0.15499666697343964,
          0.41820261942276815,
          -0.34875963227105505,
          -0.14756400995789878,
          0.49615164926306354,
          -0.20000083432407742,
          0.27885521672850744,
          1.0111993509145774,
          -0.6646060855038287,
          0.04545530224072787,
          0.17074964299731238,
          0.06212371308887499,
          -0.3050261403662674,
          0.005787001602790125
        ],
        [
          0.3730770789581064,
          0.21625389149405133,
          -0.40213242452431797,
          -0.2975851860311117,
          -0.6628769900522976,
          -0.8583828533995346,
          0.24914318975081165,
          0.07326636946573285,
          -0.5009615341713477,
          -0.2958620841945828,
          0.032521104825943496,
          -0.8426002524887087,
          0.24944478242132892,
          0.17605915889709597,
          0.37840537827903903,
          0.040676201939288864,
          -0.22923086977983018,
          -0.5178618786996745,
          0.575269552188758,
          0.03138542284739529
        ],
        [
          -0.02092690473221943,
          -0.17501712837593972,
          -0.09949281742341279,
          0.05365879709106993,
          -0.3546902617071963,
          -0.13996821965598497,
          0.759238938265066,
          0.024202451672472324,
          0.3568547945815638,
          0.8890907336123954,
          -0.07894776873972471,
          -0.03970934985459751,
          -0.26501746666689263,
          -0.31377271442705346,
          -0.584141302366671,
          -0.1743812181985361,
          0.17182078278674073,
          0.7122921294976133,
          0.16675049072739073,
          0.07733899373176603
        ],
        [
          -0.49186729977819543,
          0.09764265797674357,
          -0.6067683921184708,
          0.030794397485986155,
          -0.28557877345755905,
          -0.14394884096548355,
          -0.5373254537591299,
          0.32411011363956344,
          -0.2816006095095744,
          -0.5866739245954582,
          -0.41023997685027813,
          0.07088658322678433,
          0.19394060204267027,
          0.273397857964664,
          -0.21578034268367646,
          0.2296193870450881,
          -0.06173111368429627,
          -0.33372888811401374,
          0.30190643301098186,
          -0.11836024490196399
        ],
        [
          0.12644762252473438,
          0.4211520974195184,
          0.5818197012205741,
          0.01460620252886932,
          -0.039411133991328964,
          0.5070492182264286,
          0.12308195258793812,
          -0.25973512966830115,
          0.31278719592994325,
          0.9955809823959846,
          0.8645005838746077,
          -1.0582897644521354,
          1.1485742370592906,
          0.11427476439145352,
          0.5249335565559062,
          0.6791344130272389,
          0.24052747754411363,
          -0.09282168395326437,
          0.9167482019999602,
          -0.4523578156314028
        ],
        [
          0.12066586865814555,
          0.2918811804823363,
          -0.47498775692415984,
          0.004045614974824847,
          -0.22761056341843594,
          0.8177031480697647,
          0.4978837053176694,
          0.18500881670183866,
          0.22048557717616635,
          0.13645463258197824,
          0.13290931522268218,
          0.17689153241482175,
          -0.4032842744978954,
          0.1402166569574975,
          -0.3784714625111082,
