{
  "version": 1,
  "inputSize": 9,
  "latentSize": 20,
  "hiddenSize": 64,
  "columns": [
    "attack",
    "health",
    "taunt",
    "rush",
    "stealth",
    "divineShield",
    "windfury",
    "reflect",
    "lifesteal"
  ],
  "featureStats": {
    "max": [
      5,
      7,
      1,
      1,
      1,
      1,
      1,
      1,
      1
    ]
  },
  "encoder": [
    {
      "weights": [
        [
          -0.39222397761962163,
          -0.4188355595349649,
          0.6464905553823377,
          0.5464670959959839,
          0.37526816999833407,
          0.14147096077728863,
          -0.39554678543199473,
          0.4197902811202762,
          -0.2653249567165837
        ],
        [
          0.3447071192469939,
          -0.48921051565321194,
          0.9674064359307377,
          -0.382893296785384,
          -0.1789414011774684,
          -0.28708603896462226,
          0.6210014525796551,
          0.128597707724866,
          -0.20039390861655587
        ],
        [
          -0.5085168663174772,
          -0.5117263390981241,
          -0.9353151786568056,
          -0.1306053212805125,
          -0.05567201985444984,
          -1.0287202627032077,
          0.35910512521817,
          -1.152973318174608,
          -0.3608027586299973
        ],
        [
          -0.5363417837810401,
          0.24018112316038792,
          -0.012313291145921355,
          -0.6961910092699483,
          -0.4426815909298585,
          0.36342154691494016,
          1.2505612233168601,
          -0.0331930626012708,
          -0.3062701455497529
        ],
        [
          0.009822076632822046,
          -0.22380561428104792,
          -0.574543782828455,
          -0.15621880676919456,
          0.4459575769750901,
          0.12686696794190044,
          0.24260307421304675,
          -0.12196944101695961,
          -0.5051847721795416
        ],
        [
          -0.5777355401673586,
          0.3660389662416904,
          0.37218125163852694,
          -0.10252268617731256,
          -0.719372160774946,
          0.2678491938379917,
          -0.01689410784509894,
          -0.0251577178100664,
          0.43713720727976013
        ],
        [
          0.9156188434958938,
          -0.3751338561921704,
          -0.42133276544923315,
          -0.36233357534791305,
          0.4712820418403551,
          -0.43577735914149307,
          -0.24445906113349455,
          0.036437790534628166,
          0.38869254742415726
        ],
        [
          -0.8103006173437356,
          -0.07424324003369433,
          0.37292101711341286,
          -0.24420452664125067,
          -0.392978431015568,
          0.20166455492855098,
          -0.07118293940987652,
          -0.795728881507007,
          0.14444751584050744
        ],
        [
          0.7038015104636133,
          1.1666384937949588,
          0.010677816800345484,
          0.8551076313473832,
          0.11287126945598458,
          0.042376871573942994,
          -0.5225694147257745,
          0.07303831703374164,
          -0.4815030999934869
        ],
        [
          0.22606512049323535,
          0.03221789794834704,
          0.6559102533992299,
          0.23110166394565937,
          -0.19057202335758855,
          -0.7637111967580436,
          -0.09966489777445717,
          -0.03720394956172974,
          0.2273167817168839
        ],
        [
          0.11497281734455247,
          0.4339261904551016,
          0.1654572880631159,
          -0.3903386883559113,
          0.0666023531802258,
          -0.6054030339668923,
          -0.70248765423164,
          0.09729339652545027,
          0.10246631046555363
        ],
        [
          -0.08736719868615604,
          0.376594366842149,
          -0.32298726385063087,
          -0.5639246048494355,
          -0.1274144449707536,
          -0.7877322298696288,
          0.15096481161980238,
          -0.1171776827308198,
          -0.09061276970765196
        ],
        [
          -0.14637568476054966,
          -1.4033998875445222,
          0.2625172138479608,
          0.22995620170993625,
          0.33499460495282535,
          0.2225350377329341,
          -0.07643082629846942,
          0.50512501474288,
          -0.5966066863894268
        ],
        [
          -0.8270483879173574,
          -0.18506094254567598,
          0.09783007608147314,
          -0.2094047252871959,
          -0.32079351567882913,
          0.27140010037140466,
          -0.4076900302531762,
          -0.11426036519980538,
          0.3505981366541426
        ],
        [
          -0.3761024842856587,
          -0.046972719722330594,
          -0.38326618839864995,
          -0.49301327006811213,
          -0.17534519357169603,
          0.1045924624359041,
          0.333847239520159,
          0.8236186829495085,
          -0.20133642566134655
        ],
        [
          -0.2779440083200183,
          -0.07222738935796784,
          -1.180634212057386,
          1.701855832222236,
          -0.4511057182628411,
          -0.6113134276072334,
          0.6848303637943777,
          -0.02729302786380388,
          -0.41150499086601344
        ],
        [
          -0.5292085977427229,
          0.34678697562080196,
          0.13005679237256726,
          -0.3426742867350438,
          0.4531892879955967,
          -0.427970369211137,
          0.3751578276643996,
          0.5313959585050202,
          -0.3309455701884936
        ],
        [
          0.6965159568751217,
          0.09208869232413111,
          0.5549458619233186,
          -1.4287643204143772,
          0.13364869472562738,
          -0.007688104079205423,
          -0.2646086846705197,
          0.3347833282424023,
          -0.002366618727220197
        ],
        [
          0.27838932240516406,
          0.06703513613188927,
          0.5351626852569363,
          -0.3660122658924549,
          0.2743105235109422,
          -0.1720078516055013,
          -0.02285567746952619,
          0.9570098842204862,
          -0.02593972497142796
        ],
        [
          0.4005681901174595,
          -0.0014448925277460887,
          0.14328842646650908,
          0.026391900074786753,
          -0.14252265416324073,
          1.0591599206567655,
          0.20750623317840589,
          0.8888632739147658,
          0.669428119009065
        ],
        [
          0.47213257871671455,
          0.3274397245746994,
          0.5313999414984562,
          -0.0023621558687768386,
          0.20270136296611937,
          -0.2820731514338544,
          0.05904221149614138,
          -0.3088998790361177,
          -0.8517864329078944
        ],
        [
          -0.0753917991307148,
          -0.2621552004937937,
          0.08011582674844335,
          -0.16922370475598528,
          -0.4458785023820012,
          0.22640008238147177,
          0.5925920223295678,
          0.2786353140357914,
          0.8084497261700314
        ],
        [
          0.04671431333791966,
          -0.06407002259152536,
          0.07055411032342902,
          -0.6721064289575567,
          -0.926883448533037,
          0.3058902468924405,
          0.29445609145484225,
          -0.15533726583752333,
          -0.46316550361295084
        ],
        [
          0.10546873299966762,
          -0.4160558431617691,
          -0.24375542146027157,
          -1.315620463652547,
          0.4200612015184241,
          -0.030855813023173775,
          -0.5276634640200942,
          -0.2515408256739614,
          0.8075764534493836
        ],
        [
          0.1496308529401472,
          -0.648802658825845,
          0.29537382771644033,
          -0.5890746260150408,
          0.23385835699845106,
          0.5454105453849726,
          -0.10337583998835936,
          -0.2969073043215434,
          -0.38058721154227354
        ],
        [
          -1.0268784996429523,
          0.5442100650911567,
          0.07376190012487258,
          -0.3466621708357643,
          -0.40632812165801063,
          0.7019237781902419,
          -0.17718576540595293,
          -0.03917299452725792,
          -1.0703245649781665
        ],
        [
          0.46391557920057586,
          -0.5961759602177096,
          -0.05580892500574093,
          0.0282178105923012,
          -0.8177654828821751,
          0.2532484478920939,
          0.36640697096355096,
          -0.197312588522543,
          0.9117726241717562
        ],
        [
          0.03824854089293774,
          -0.6305882990353143,
          -0.5500942252768808,
          -0.02819094865099811,
          -0.46980095069203925,
          0.16135041674755488,
          -0.05039532991567629,
          -0.18764877399899574,
          0.08761453150420055
        ],
        [
          -0.2546857574693829,
          -0.08994399062341431,
          0.36636069415125,
          -0.6329634254767694,
          0.11695423871490636,
          0.13234587911750617,
          -0.005909806855319594,
          0.6322577457331772,
          0.03535610428499507
        ],
        [
          -0.18139081894845116,
          -0.4684661974913816,
          0.5658562787008012,
          0.7791733493681905,
          0.7887901793393467,
          -0.278598344838592,
          -0.44643156526969124,
          0.4145905162792023,
          -0.6422698960940655
        ],
        [
          -0.013135933903714798,
          -0.14639316784617706,
          -0.4346758072845057,
          0.09513558105417469,
          0.6291212997301995,
          -1.1477250277230917,
          1.0547127591262357,
          -0.2798564885415934,
          0.64798273702959
        ],
        [
          -0.6932742840539547,
          1.3751526328368198,
          0.03529153768960213,
          0.029730960288765554,
          0.15304139125556449,
          -0.7618259058752862,
          -0.4367895585853205,
          -0.22584482673758097,
          0.011407514257311662
        ],
        [
          -0.2661725224388482,
          0.5973132089171753,
          0.6652379306990635,
          -0.5132774686848867,
          -0.42412545006449315,
          0.2902720395501612,
          0.1762417193776608,
          -0.653469989506119,
          -0.1687201603780713
        ],
        [
          -0.49104354829597424,
          -0.30378373334000575,
          1.0906919982050984,
          0.2908031458590795,
          0.42247026759509293,
          0.3564325745076724,
          0.6871848588228651,
          0.8286424284598274,
          0.15480364117608894
        ],
        [
          0.3390047894096941,
          0.2577151267589327,
          0.6526781578611841,
          -0.7414373988433632,
          -0.3397335353662161,
          -0.6557718654631767,
          0.5253565886605155,
          -0.17222669826984596,
          0.3912798238839603
        ],
        [
          0.411148860849184,
          0.5301984532763582,
          0.047382235909598065,
          0.3115968567944386,
          0.5582026666827048,
          0.021948116482158015,
          -1.260327529337279,
          -1.19471615885077,
          0.2807459319213729
        ],
        [
          0.03887443470974639,
          0.25204473981054837,
          0.9289751660797697,
          -0.37503159845780304,
          0.12604444072428134,
          0.7566434666336157,
          0.8874630153495185,
          -0.387031529385552,
          -0.16350485882303556
        ],
        [
          -0.8425596119051728,
          -0.2779824404002715,
          0.5420613333750479,
          0.4591709797483068,
          -0.4890356390877137,
          -0.3528937373818396,
          -0.6795449289995268,
          0.09266913153056777,
          -0.41447302656845475
        ],
        [
          -0.4094482835684695,
          0.36961459610569913,
          -0.24723229277419898,
          0.6457048537283991,
          0.45139261753349347,
          0.2627448704290224,
          -0.5465727793751863,
          0.5531463839094124,
          0.2853341437815498
        ],
        [
          -0.42394680590681527,
          -0.8838380085246633,
          -0.317352529030742,
          0.25834187642726414,
          -0.4846375663962787,
          -0.9496955007802312,
          0.728517426329105,
          0.013321585054238473,
          -0.3817576598606816
        ],
        [
          -0.3571229283277529,
          -0.6984702615612193,
          0.4143942839938673,
          -0.034987447665204695,
          -0.17545936431783513,
          -0.12311304360215661,
          0.26355004540122445,
          -0.19634568143272016,
          -0.49908551010188257
        ],
        [
          -0.09917527542563824,
          -0.203645491277423,
          0.9418564604010762,
          -0.047952068395935736,
          -0.28668995865600283,
          -0.4145183601957363,
          -0.5278651275060506,
          0.171386971587381,
          -0.08735147607575887
        ],
        [
          0.22064025198751386,
          -0.12381620970176525,
          -0.6669600388885036,
          0.6362080161250696,
          0.19866825279552025,
          -0.09018732357809846,
          0.21766767291631192,
          0.8624095225905841,
          0.018734445707906278
        ],
        [
          -0.035283437986052345,
          -0.09786064048208372,
          -0.03898121657766222,
          0.2767861440752075,
          -0.23224639470835942,
          1.2350481985644128,
          0.1758635159511355,
          -0.7946366599033485,
          -0.17702623756462424
        ],
        [
          0.0876288108090399,
          -0.12355344016931871,
          1.4507208038017247,
          -0.38709691551874237,
          -0.16544103705774843,
          -0.5406891581419117,
          0.1737454427632529,
          -0.402650731535994,
          0.026482122429299232
        ],
        [
          -0.6037126625632441,
          -0.057653814313184545,
          -0.11176327617864809,
          -0.019549857925363134,
          -0.16409357084675752,
          -1.066702112532191,
          -0.14201510994680475,
          0.36634366787433614,
          -0.7365610609256006
        ],
        [
          0.13591415667508178,
          1.0864025030911144,
          -0.8787928697091304,
          -0.04350822193002142,
          -0.4761577560681006,
          0.1038225359074548,
          0.07883324625798867,
          0.12086605953992069,
          -0.21930344732333495
        ],
        [
          -0.3193867084000428,
          0.07162967303473314,
          0.4424829596815777,
          -0.3818597319539001,
          0.6808520567617825,
          -0.40505944038951835,
          0.5827610108649135,
          0.5271666099386689,
          -0.49918019882608156
        ],
        [
          -0.5065269739935909,
          0.07209183384999036,
          -0.08760612237892115,
          0.5410752831338068,
          0.4430237327501369,
          1.0283358402928546,
          -0.5920127243663003,
          0.392754294535698,
          1.1175692235561214
        ],
        [
          -0.47031184208076016,
          -0.05168912760684193,
          -0.6024912839096143,
          0.00347451008586448,
          -0.7400545493305395,
          0.3998708637187133,
          -0.6367390591327656,
          0.34561064831323884,
          0.14960883368491865
        ],
        [
          0.90825741320012,
          -1.1781835242460754,
          -0.6029672880143988,
          -0.45682842849101235,
          -0.36986563311103504,
          -0.33222714787966556,
          0.7474660570949715,
          -0.12851698027660488,
          -0.2271810872986175
        ],
        [
          0.008420116162227062,
          -1.1728147008654302,
          0.48293836629321396,
          -0.054258676905624775,
          -0.6444731447198796,
          0.08553961595738026,
          -0.06271348553469902,
          -0.2482534295009457,
          0.03376139714285467
        ],
        [
          -0.2864201137313785,
          0.1250345695223946,
          -0.45679138693977017,
          0.10182376140688057,
          0.09294109139010914,
          -0.20651651216100803,
          0.25370576332317635,
          -0.36712622096052694,
          -0.16782849305090453
        ],
        [
          0.44589430401217794,
          -1.1941702940323913,
          -0.5566410944709765,
          -0.3649854457070056,
          -0.29228936100434605,
          0.18192375427191926,
          -0.23753627859873386,
          0.3613573842279901,
          0.5559032792993127
        ],
        [
          -0.16821067309920504,
          -0.10309378086654086,
          -0.18583885554611496,
          -0.5217246941859058,
          -0.3879712419765454,
          -0.10793244166571378,
          -0.32837681809265995,
          -0.06585181397930552,
          -0.16476709318101807
        ],
        [
          -0.297457124960894,
          -0.1271830369568915,
          -0.16727983002862065,
          -0.07307573429902861,
          -0.39960052429186604,
          0.36198731007523094,
          -0.038967323876975345,
          0.09653883766681662,
          0.5813150987637316
        ],
        [
          -0.7167601351867943,
          0.4743791751725175,
          0.9665104046999485,
          -0.2069818610084911,
          0.004145284352602115,
          0.5795180321928433,
          0.02400611766562381,
          -0.07047192732226472,
          1.0195664423133597
        ],
        [
          0.1435837093068456,
          -0.5971854020737724,
          0.6044285865925747,
          -0.25745263759606885,
          -0.9955434856414077,
          0.5252569514954053,
          -0.5910151732053465,
          0.4024668896808291,
          -0.35075848243372604
        ],
        [
          -0.057647914435676066,
          0.3215920556337372,
          0.4963933679391589,
          -0.03536817834692981,
          0.05541066704419999,
          -0.4347009105799886,
          -0.7127331546086394,
          -0.007521729730272515,
          0.45440345440044955
        ],
        [
          -0.046885099646105044,
          -0.6549019420577367,
          -0.23397879512756156,
          0.7975030771724253,
          -0.12577768262930566,
          -0.019481804540514555,
          1.451996676438594,
          -0.07291169109856316,
          -0.5832665850675853
        ],
        [
          0.20129618888428755,
          -0.0037600129680368404,
          -0.14658006854961275,
          -0.17523872722549952,
          -0.5752012379018782,
          0.1325050911350256,
          -0.02798839658214377,
          0.20648914434004295,
          0.45163750673538117
        ],
        [
          0.5775539745207577,
          0.7935093401947207,
          0.19995469665119023,
          0.4948204203582474,
          0.2165654828178076,
          -0.811823103783611,
          -0.15983787909169958,
          -0.46519269946737585,
          -0.4729440159224488
        ],
        [
          -0.5828354313876223,
          -0.0760550113155127,
          0.49652674704260336,
          0.0680721933384917,
          -0.8844033944241918,
          0.3613612182706182,
          1.0690906087384868,
          -0.02696626329095107,
          0.36642059932917825
        ],
        [
          0.37996220022374055,
          0.551438598039088,
          -0.2931390591995433,
          -0.3467138328525361,
          0.5191301382937252,
          -0.5717015108884903,
          0.353548789678819,
          0.1408038611914804,
          0.4774385997307058
        ]
      ],
      "biases": [
        -0.04886177720623732,
        1.338035209199536,
        -0.010624959845918783,
        0.05276558767356474,
        0.06253193401471291,
        -0.3229299899904287,
        -0.20624874942539828,
        0.013573318685105433,
        1.3114878693563228,
        0.6670878834687833,
        0.18829567403428357,
        -0.009060855571788297,
        -0.017125819173467116,
        0.0005592368974668321,
        0.04379161922648694,
        0.41214192265722477,
        -0.12645800950848532,
        0.7860647736107708,
        -0.23258415664477805,
        -0.28026540113935255,
        1.7200731023292524,
        0.011652494763418302,
        0.24239768311193902,
        0.017923816926278483,
        0.3928341607953219,
        0.11820806783574733,
        0.60266292285991,
        -0.003691130032921565,
        -0.0823332218285504,
        0.13642225154365206,
        -0.021179628673406767,
        0.24117385687508522,
        -0.20065632667061642,
        0.4506306367588464,
        0.29014690698682405,
        0.2159451911165819,
        1.0129041809979973,
        -0.25485340897229786,
        0.020610994014540626,
        -0.004423098146544309,
        -0.017057050769580008,
        0.9699487171516048,
        0.006848429590373545,
        -0.12111244987813762,
        -0.034324434271316706,
        0,
        0.4288956301677735,
        0.19700699142484726,
        0.31697335889599026,
        -0.019354567564098465,
        -0.09885018589411736,
        -0.03656593373213084,
        0.025984688262028273,
        -0.027736760360130022,
        0,
        -0.0036773161942968043,
        0.8284550638536639,
        -0.051956244301272644,
        0.5998054269940881,
        0.2506776150932364,
        -0.12820610546899683,
        0.3341746665800433,
        0.504520718575123,
        -0.11111618207041112
      ],
      "activation": "relu"
    },
    {
      "weights": [
        [
          0.05240486374921596,
          -0.37678573859548037,
          -0.37833647679711585,
          0.18398870588488678,
          -0.06418436356210852,
          0.18059664359440622,
          0.1617164638865837,
          -0.07883859377868302,
          -0.5259852720273072,
          -0.20877518662954747,
          0.17618275164119462,
          0.1377204888062177,
          -0.12652285662664745,
          -0.019891443167242603,
          0.2839372515411101,
          -0.6171496285830795,
          0.026112051640233645,
          -0.10616039439358133,
          -0.05997020813594274,
          -0.36121342588112854,
          -0.29881392454225514,
          -0.16112904503281308,
          0.47666623618819937,
          -0.1724731396809861,
          -0.19916308035680197,
          -0.18393819984491735,
          0.0778913543610568,
          0.08269459111708606,
          0.18233051966977284,
          0.026928605406312377,
          0.2931536631948637,
          -0.007586174960224392,
          -0.20054327975120895,
          0.05293650638305782,
          -0.15778036277791535,
          0.013439826025333671,
          -0.2340071007888698,
          0.05885907092276259,
          -0.018899158294741727,
          0.07486708827214936,
          0.06291827060907002,
          -0.3924729956241128,
          -0.342209166373661,
          0.01921460759857686,
          0.23704223795508889,
          -0.1798296191878358,
          -0.0855156172596525,
          -0.02777422626562313,
          -0.36274385673972265,
          0.057453323845618354,
          0.04730091032666597,
          0.1619548888176762,
          0.16381594667657257,
          -0.18332898313913823,
          -0.0968664806966007,
          0.09777582545533203,
          -0.38863877592332013,
          -0.14974348207282692,
          -0.18455045245658525,
          0.007655800373929146,
          -0.07037539656042996,
          0.03148626550919057,
          -0.2136626423784359,
          0.34102805769322553
        ],
        [
          0.2087157112642316,
          -0.376254035877742,
          0.25543670366449167,
          0.1515534373192866,
          -0.5075282865383874,
          0.008914100337601046,
          0.0007210814925063022,
          -0.19782222957609233,
          -0.3625735085545359,
          0.031788704410392506,
          -0.05532365125061905,
          0.08120286555252085,
          0.1043872125259849,
          0.17013608771129923,
          -0.10513926445157207,
          -0.09850414535129925,
          0.3241745678133649,
          -0.5726749997307079,
          -0.34622315669422593,
          -0.14180612542915041,
          -0.482277100314666,
          0.18383106924939777,
          0.20652495797035592,
          -0.09784875848973287,
          -0.05914184117245143,
          0.09872363471957059,
          -0.1031604234864847,
          0.17566837190942272,
          -0.2350450172806969,
          0.2618325923536443,
          -0.12501427478777485,
          -0.11389462026041407,
          0.24438602069425835,
          -0.09323974885786014,
          0.02349177425027917,
          0.05135596493857381,
          -0.223789772876061,
          0.2544235924860818,
          -0.1838187915298326,
          -0.18003312200152968,
          -0.07948528418920299,
          -0.7155879288832121,
          0.07781137645817555,
          -0.3300551548209455,
          -0.022414820868330385,
          -0.01790473855613856,
          0.23618404478738647,
          -0.047769797761852396,
          0.13841677203591515,
          -0.12008110976501203,
          0.10567635237709025,
          -0.038292797078053595,
          -0.014616404276605915,
          -0.10426887817740826,
          0.03141992400318724,
          0.1870847477283478,
          -0.25268533434134005,
          -0.12453013333915619,
          -0.29575480271718885,
          0.20446486938527528,
          0.05106848600799212,
          -0.00351201475823522,
          0.35059832201476837,
          -0.15486803774036448
        ],
        [
          -0.006349139104307036,
          -0.12190660874538474,
          0.009375319190696629,
          -0.09777269003482199,
          -0.2665060566903459,
          -0.09272538426078175,
          0.05182732655364555,
          -0.048877412711698785,
          -0.34358301305864203,
          0.09675229355506182,
          0.4519379403852655,
          -0.09793115583781459,
          0.2597162027054874,
          0.04408849685529934,
          0.15989852764338264,
          -0.3698989769320465,
          0.20500804657829208,
          -0.5991959089543931,
          -0.18956976715858542,
          0.12392650592897103,
          -0.4058339012474693,
          -0.29531865257687523,
          -0.08223439881196833,
          -0.14692350134970034,
          -0.1058725003229146,
          0.01764283743970338,
          0.010306089199901933,
          -0.25382488935788444,
          -0.10214125930577941,
          -0.3662990186008696,
          -0.22958807370576606,
          -0.4477491426634226,
          -0.11108007883821246,
          -0.25626063703924234,
          -0.1469059375957391,
          -0.28055941080586544,
          -0.5920633779368112,
          -0.2135736514629394,
          0.19724933200728073,
          -0.2854479571666349,
          0.09337920953548666,
          -0.06403539978962032,
          0.14786685973238614,
          -0.06291992046563225,
          -0.19988405082572627,
          0.3020958045601783,
          -0.054003995274838526,
          -0.2336831500118763,
          -0.05233796072642246,
          0.0304590834047534,
          0.1628062662452119,
          -0.16998186298951926,
          -0.05760547987469915,
          -0.02375642398030243,
          -0.12771988816787253,
          -0.11976733642305103,
          -0.2899919691709244,
          0.06949871477134309,
          -0.027262783752245816,
          0.05429074073389615,
          0.15101198537227675,
          0.22755146832571513,
          -0.19807876530801266,
          -0.05823451422458115
        ],
        [
          0.006118231353883418,
          -0.5354063549372384,
          -0.16079379526814497,
          0.18497155005140004,
          0.12481036153580927,
          0.14531085946515704,
          0.36825751781383476,
          -0.1992630900762497,
          -0.00413774552346045,
          -0.34143087771455816,
          -0.1480489035108956,
          -0.010360889863054303,
          -0.03697974536300181,
          -0.07589805508722712,
          -0.03157543389035328,
          -0.03261119678054751,
          -0.04045053553059627,
          -0.07455958526522456,
          -0.036563940619576074,
          -0.03910964933566816,
          -0.6042951559895919,
          -0.14348767892052913,
          -0.28292398674288105,
          0.00454714075151373,
          -0.17051607491571014,
          -0.1377241382104321,
          -0.10597680522544962,
          -0.23297788803085281,
          0.02027778458475861,
          0.07130438435321625,
          0.1443148747463869,
          -0.03631059794171746,
          -0.1521253958507724,
          -0.32458624296098393,
          -0.0791536511740361,
          -0.03148389452804853,
          -0.15548502203491268,
          0.08166901081899797,
          -0.021413087988157435,
          0.14060952338054997,
          -0.02904031226808462,
          -0.41669761938567157,
          -0.015021651546473617,
          0.2461080576034789,
          -0.3947408009533781,
          -0.23971973463868423,
          -0.09004567859284683,
          -0.19671347980538867,
          -0.3647839829416577,
          0.15884390202119278,
          -0.17745050822611882,
          0.1427030376156451,
          0.02229715317398355,
          -0.029136735126646156,
          -0.2515013375965212,
          0.011265305568608136,
          -0.3139977344903255,
          -0.11586632615992816,
          -0.2838906409308685,
          0.3679135549577095,
          -0.026011510651048526,
          -0.06265893184992782,
          0.14835298553926615,
          0.4271653188197897
        ],
        [
          0.059426789446943185,
          -0.2686448911173361,
          0.1555179016559341,
          -0.31422105314229093,
          -0.16573485659570553,
          -0.015932837917298017,
          -0.5282834734580163,
          0.20106107307319035,
          -0.30833423620487,
          -0.2230551515975469,
          -0.37050394969195494,
          0.351570067332974,
          0.27480907016500544,
          0.4388449649714793,
          -0.2626555511949119,
          0.02598977922819363,
          0.06608957339758603,
          -0.42068548996802396,
          -0.014532527070714243,
          -0.341640169342533,
          -0.3353860156218703,
          -0.06721692444043033,
          0.06543641506355835,
          -0.061126136916142465,
          -0.25307100146480366,
          0.16711502496881908,
          0.023029882826152728,
          -0.08523468919273364,
          0.2454989928183707,
          -0.3810356761359689,
          -0.007786666218667087,
          0.035655988262987263,
          -0.15288638545895436,
          -0.08238523860184012,
          0.09600952324309238,
          0.06454825965995285,
          -0.3526984036637349,
          -0.10296193306309667,
          -0.06678310862051219,
          0.41394621154784544,
          -0.2524485509010458,
          -0.37490023561208574,
          0.056273344047070364,
          -0.01551181906953413,
          -0.34268010002121546,
          -0.14295427220309162,
          -0.2336406681726427,
          -0.23849216381423577,
          0.05115133392183703,
          -0.3057433424138609,
          -0.042157779962422176,
          -0.2989771406888963,
          -0.23145459274741367,
          -0.04075747126439284,
          -0.21126542025719378,
          -0.1943359333422057,
          0.3636107111447689,
          -0.14079403778811922,
          -0.2664129138458662,
          0.12336759288049615,
          -0.08689954789373261,
          -0.3058904918940207,
          -0.23627263115357391,
          0.10527539745242655
        ],
        [
          0.11025312467917249,
          -0.534395396490096,
          -0.3721872913511411,
          -0.0338772460057827,
          0.1633935940608057,
          0.012484861589151599,
          0.09629865836660302,
          0.10150174564356758,
          -0.3391780381796389,
          -0.3177259698523405,
          0.24168471637247563,
          -0.20368180751431564,
          -0.10938497070657138,
          -0.14765748630741204,
          -0.38114162437887233,
          -0.17777789673074254,
          -0.3184772288351056,
          0.10991934955056702,
          -0.06813170152404685,
          -0.07148833911477533,
          -0.5207099575881916,
          -0.267097590970537,
          -0.24530769787303375,
          -0.1534767907966972,
          0.15854053033293874,
          -0.14172960486768732,
          -0.5522158529472789,
          -0.06398177388427487,
          -0.0351051101910781,
          -0.2848309410057231,
          0.08653264828652606,
          0.20347687385352023,
          -0.04869852587263853,
          0.025780451216473797,
          -0.14272741507839917,
          -0.26654843256821054,
          -0.016688037833853683,
          0.33364827913290046,
          -0.1400616851989551,
          0.20901015822228977,
          -0.051957302594669616,
          -0.2757712416541338,
          -0.300047497315457,
          0.007795655056364665,
          -0.3343729922844609,
          0.08027481495733053,
          -0.0009409678569223054,
          -0.10163685801301865,
          -0.14991911785150033,
          -0.05892600565961911,
          -0.30258944070504756,
          -0.10920092632981043,
          -0.04371728637990349,
          0.1920441091982885,
          -0.03217063236393491,
          0.18877111197505103,
          -0.2228699731609972,
          0.0026766391866382953,
          0.2062140450700184,
          -0.023588004735988734,
          -0.008207478654325468,
          -0.10383566183501858,
          -0.20707472678602523,
          0.06566722291813148
        ],
        [
          0.014452322648433914,
          -0.3152824833774258,
          -0.016159324978502875,
          -0.0018536509522908424,
          0.03419799830749488,
          0.3951038006128377,
          0.16142246272752228,
          0.30639905050956084,
          -0.2806805514114198,
          -0.42247077549328804,
          0.034165504588249705,
          0.10191674972066334,
          -0.03776466825142228,
          0.0849843871170765,
          -0.2667481851905621,
          0.19215031849176678,
          0.1918620547862438,
          -0.3038795167761081,
          -0.04540946638416573,
          -0.15216597803782578,
          -0.3644548662373302,
          -0.06782941008106226,
          -0.1391021253447088,
          0.1644024373021165,
          -0.19610511862182112,
          0.06542638862579772,
          -0.3582085635599261,
          -0.02838812473768751,
          0.029095892091407952,
          0.07896004503606673,
          -0.10891334918193352,
          -0.2602398985000588,
          -0.19234908051199956,
          -0.0792068810430949,
          0.09635649436994642,
          0.25507935350307587,
          -0.37298471472854694,
          -0.13448554745898986,
          0.03847435849268184,
          0.05906683294258301,
          0.21773613058127703,
          -0.14131892356532297,
          0.16958180761320613,
          0.03236541406892142,
          -0.16900044956602492,
          -0.017631881297989295,
          -0.01365843740614343,
          0.08785508785722664,
          0.09803146811857705,
          0.029590805441220804,
          -0.01191930753640236,
          -0.051923259738272935,
          -0.154678252480139,
          0.24347517277895886,
          0.02876810405327243,
          -0.1406337721023502,
          -0.39445289779168474,
          -0.07726759947714763,
          -0.2053073017752849,
          -0.2056425028986374,
          0.16704262707794473,
          0.05029820177602565,
          -0.3016688822097694,
          -0.320145922266962
        ],
        [
          -0.0629877194257239,
          -0.160385004489691,
          -0.09011209549376983,
          -0.13097701473001136,
          0.0975913126055305,
          0.0445742890297862,
          -0.16646623234011593,
          0.018891601681087434,
          -0.4438036376931621,
          -0.15652625480396073,
          0.41606791278063515,
          -0.08402976986177467,
          -0.08165474750478742,
          0.008327916275257276,
          0.01955935377576296,
          -0.22787303695855585,
          0.10281919820496871,
          -0.24984407327376384,
          -0.08387198283285581,
          -0.26375988372861603,
          -0.5875202218545004,
          0.1058343002894205,
          -0.08239014818421961,
          -0.036016900103666746,
          0.07984184784366664,
          0.35373716032615865,
          -0.20704468300373546,
          -0.2735846773798177,
          -0.00959433278938541,
          -0.14236316340827285,
          0.05711945424278656,
          0.19200835096900132,
          0.031112099756934998,
          -0.2844283013946589,
          0.08567459289870638,
          -0.29699935620627793,
          -0.19959700656556686,
          -0.09569437854155444,
          0.06505733093392384,
          -0.06783566961696934,
          -0.2917679383454491,
          -0.15339513499114937,
          0.021532840403809064,
          0.1723076933298967,
          0.3362967753030028,
          0.04524687009389059,
          -0.25445151215262746,
          0.046818675419292854,
          -0.29606862689212116,
          0.14712914389748286,
          -0.12291083288593986,
          -0.034781388754113386,
          0.18115040895663384,
          -0.0025916414640011058,
          0.2491995975045223,
          0.053107419501751046,
          0.011295368332484887,
          0.05074762589797324,
          -0.02182066152796167,
          -0.11329530848103044,
          0.10411712710123075,
          -0.20294306231372233,
          -0.26491820227665086,
          -0.08327314971967728
        ],
        [
          0.17221806294529907,
          -0.39937145338095287,
          -0.041659722663102895,
          -0.10180705255432437,
          -0.00999977122599242,
          -0.07600335489506194,
          0.06702746525871446,
          -0.057344250528701075,
          0.0026050627220233474,
          -0.16199079161538557,
          -0.11881722231047122,
          -0.02035210469124555,
          -0.07921451274283126,
          -0.1855065580103767,
          -0.18953465959552024,
          -0.24526313852036935,
          -0.15691606635831334,
          -0.2687261119318351,
          -0.004845363310401972,
          0.20167894311442558,
          -0.3016408752344,
          0.27193846187364784,
          0.036730672863698854,
          -0.36299320747568464,
          -0.05459054857360645,
          -0.423024484844754,
          0.06784083289625167,
          -0.1815833981789749,
          -0.002749145181975586,
          0.1638672451762316,
          0.0799257358000754,
          -0.24525313598106524,
          -0.3728107711368953,
          -0.03271626141672289,
          -0.28759817402318905,
          -0.10860396973839415,
          -0.5313201493455529,
          0.3412709596373624,
          -0.16499979078379043,
          0.15999252899392172,
          -0.11817102652331903,
          -0.30141634979148724,
          0.05940315142554674,
          -0.045839698900741764,
          -0.10829472209829823,
          -0.023607301758779002,
          0.05956186192071607,
          0.17964081516128164,
          0.0021721620041495276,
          -0.2957375336234829,
          0.1416149109073189,
          0.07118445291420016,
          -0.3156132305569101,
          0.11986742962790337,
          -0.007364997262235941,
          -0.08150107321381557,
          -0.5132553529741628,
          -0.1346783117810721,
          -0.3444974854489835,
          0.14571250090626608,
          0.003152839045625697,
          -0.1338821884161033,
          -0.28075585597470915,
          -0.05958386859224166
        ],
        [
          -0.07763180175064899,
          -0.3091623767640536,
          -0.09409116309109394,
          0.048149294111860946,
          -0.131602111057809,
          -0.11989418313789794,
          0.12309106481730402,
          -0.02369724182395966,
          -0.3978768685102888,
          -0.02510938493169968,
          -0.342701398565346,
          -0.08583262280431761,
          -0.29768904969508364,
          -0.2233293144928415,
          -0.270288526267735,
          -0.3988118585894373,
          -0.16100886212263602,
          -0.2098996996275427,
          -0.02315324985064422,
          0.0870459532967234,
          -0.3229518854982622,
          0.015339845149615514,
          0.19946749890545884,
          0.06473656276825947,
          -0.20938906419787826,
          -0.34252649384068323,
          -0.07847766634752347,
          -0.1770999044386675,
          0.004106365689346708,
          -0.0816986057166042,
          0.14470028562502005,
          0.03384177663117762,
          -0.1833464245033727,
          -0.2629231083055382,
          -0.2933092236207246,
          -0.10593212516423277,
          -0.016352190450467485,
          0.17563881232949108,
          0.18085493239545694,
          -0.13846200952136176,
          -0.06480896805565892,
          -0.55156020852583,
          -0.02424204402653252,
          -0.15698356846693592,
          -0.22253433643982365,
          0.10157345486841361,
          0.03408463273342219,
          -0.19540583311287738,
          -0.5830971374645629,
          -0.06731654545052315,
          0.030979967127999296,
          0.14263979704496035,
          0.019629408614279968,
          0.016591905634706975,
          -0.2274037380584934,
          0.030851308147705408,
          -0.08850092337960175,
          0.12805870748764445,
          0.030549537936760865,
          -0.38248715518729887,
          -0.08349308832131261,
          -0.0952283281337736,
          -0.10714508014425378,
          -0.10740404316392484
        ],
        [
          -0.005267353310542113,
          -0.4678045911186186,
          0.024049417809106056,
          0.13300717771162057,
          0.38251756010493865,
          -0.0982300162383863,
          -0.07308704144049397,
          -0.03686758509087077,
          -0.10157439472132831,
          -0.34719821382927807,
          0.10899655988477604,
          0.2796928803925293,
          0.29477748874071485,
          -0.03184859166942733,
          0.1785851627404775,
          0.046839302391852855,
          0.29589191113621016,
          -0.3458493128246987,
          0.08346053498942432,
          -0.029776549855413195,
          -0.26478002163974135,
          -0.1284576809593312,
          -0.1991751530043921,
          0.06443695631200907,
          -0.1288334404964054,
          -0.2557580913767039,
          -0.39730211314402103,
          0.13272987869091948,
          0.016630657176657574,
          0.13126454015083724,
          -0.09316609486895294,
          -0.15014107113830438,
          -0.13673673356130592,
          -0.12532453338227925,
          -0.4074566369788559,
          -0.08390998676493368,
          -0.028065216582834243,
          -0.06680053727113167,
          0.10133961755312887,
          -0.14287204519491098,
          0.1564701928395909,
          -0.5512925652617193,
          -0.11092805895722839,
          0.13406406275740473,
          -0.09010100290717414,
          0.36185463470756896,
          -0.10502291771663615,
          -0.07228094722448207,
          -0.24378334583599212,
          -0.267795639336841,
          -0.08670341602026217,
          0.11103595682547293,
          0.09155243715144684,
          -0.017274946698616685,
          -0.1301124149736852,
          -0.05182273965839265,
          -0.4096743541481681,
          -0.2903889468856561,
          -0.26289985147654005,
          -0.012289102157338748,
          -0.094609464943533,
          -0.002357175989421304,
          -0.3792136498710703,
          0.1825704817350703
        ],
        [
          0.035182266284368,
          0.11216397224517667,
          0.022728626835928703,
          -0.22665362134466854,
          -0.013618069524002673,
          -0.20444224022164387,
          0.25627829840356897,
          0.22280846185757394,
          -0.37958342433188275,
          -0.33532145050837486,
          -0.31247466242043226,
          -0.29585036598100506,
          -0.09800748785498066,
          0.054135563431030466,
          0.25062741487737233,
          -0.3439682224846139,
          0.02652780374419651,
          0.08085021157570971,
          -0.015997870360747957,
          0.0647884665510814,
          -0.3253676087773641,
          -0.14384924540106223,
          -0.3218024804924101,
          0.01447009293849961,
          -0.09793855768556624,
          -0.22990271280115682,
          -0.1644979182862572,
          -0.20366229557909157,
          0.11179768369277737,
          0.29355671957441637,
          0.07375761046346525,
          -0.1763447211213151,
          -0.16513478437986706,
          -0.30733259996655576,
          -0.2720163617577284,
          -0.2863181696026858,
          -0.16822227220846364,
          0.05737428202016768,
          0.01229431063416573,
          0.2394534007354413,
          0.24414809722745154,
          -0.10067480444400648,
          0.11365240581808692,
          0.2647577789248911,
          -0.2974200232048568,
          0.040981662586357374,
          -0.14243617270705103,
          0.06932142685583015,
          -0.22069837101198492,
          -0.19375326054959097,
          -0.09140026477814762,
          -0.22374751049681896,
          -0.2779366389740985,
          0.3390062551933794,
          -0.11817321479866166,
          -0.06926070909832359,
          -0.27539218010830335,
          0.28955035352769704,
          -0.42682190410706716,
          -0.014381675442422383,
          -0.29902479808552207,
          -0.4547411180360202,
          -0.10481461641647946,
          0.08619143265421825
        ],
        [
          -0.23621532090330552,
          -0.6023509220091641,
          0.35611534306411274,
          0.0888869341191509,
          0.05385943663402537,
          0.05766981609167477,
          0.09025822684577368,
          -0.2757991885302048,
          -0.25110373145359155,
          -0.4863964112010583,
          0.06515498466069236,
          -0.010224137625512036,
          -0.42037945822590805,
          0.09429082276593787,
          0.0017979695442351996,
          -0.3780992268357856,
          0.03288774676046816,
          0.02687556483429153,
          -0.23229124087126027,
          -0.09895400730768056,
          -0.38873189767707467,
          -0.1019826688552714,
          -0.17886912140845262,
          -0.04282014149473843,
          -0.0038251035266638166,
          0.08231052290491525,
          -0.07625724164685188,
          0.23627117445421172,
          0.14290279170433645,
          0.12469473192752713,
          -0.10380408208944393,
          -0.03710782571542779,
          -0.15025346422617122,
          -0.4925166437543308,
          0.12221013786905714,
          -0.2123357835755981,
          -0.20643469851488788,
          -0.06891984539722869,
          -0.07931108950642124,
          -0.10890413306857946,
          -0.23025149151671329,
          0.0032211133078298014,
          -0.07847757543272008,
          -0.12008537748431243,
          -0.35514489240443714,
          -0.22248222154978214,
          -0.259522368408042,
          0.06915758000166301,
          -0.23344980906005847,
          0.3541575420821394,
          0.18726397976787634,
          -0.44238127432663454,
          -0.013910618548201095,
          0.04440505801169395,
          0.11854309385955687,
          -0.2484547599188093,
          -0.12712440303131997,
          0.06643348617797191,
          0.0005030471636139536,
          -0.41218455607188026,
          0.10461542832333762,
          -0.08481374594270476,
          -0.35669442591568,
          -0.0947981831126491
        ],
        [
          0.21689005486972332,
          -0.31792741221937665,
          -0.07595153001795181,
          0.02751467574765811,
          0.24493213580453504,
          -0.04934644414973519,
          0.056577707693866976,
          -0.09379049928863054,
          -0.5450652774636379,
          0.11671345554014047,
          -0.16085245521159394,
          0.05843920626833963,
          0.16972036767514806,
          -0.05048817717026674,
          0.03771619363119422,
          -0.23378030772375905,
          0.017334776305763976,
          -0.015079224786466077,
          -0.2522685481845073,
          -0.068642039868729,
          -0.35070735026099825,
          0.16864281299741513,
          -0.132608314226611,
          0.13146104041559975,
          -0.09333201311566464,
          0.06718214792522949,
          -0.15383981112834252,
          0.35297571887324736,
          -0.06792501669981148,
          -0.45930400909658564,
          0.049097617634640905,
          0.17887992330931116,
          -0.15780134405405097,
          -0.1321506005866427,
          -0.10116642606649413,
          -0.18833504277966392,
          -0.13193967942254237,
          -0.052877940086174344,
          -0.18798386408879608,
          -0.2931526317786169,
          -0.2564898451842116,
          -0.3185304945678191,
          -0.08860623769159748,
          0.06348299755870468,
          -0.3833212839089192,
          -0.028121198861901318,
          -0.1992648232223579,
          -0.2789255282467682,
          -0.11079315822217953,
          -0.03429738941833645,
          0.2810314889085679,
          0.14613248693974215,
          -0.06929882861710956,
          0.1614499582081517,
          0.03627692304133734,
          -0.017570072703205836,
          -0.008652893538121537,
          0.12940533106235708,
          -0.11521935067111555,
          0.0018028253379324813,
          0.017864193514283186,
          -0.303149381519035,
          -0.14974009035468278,
          0.203141437729212
        ],
        [
          -0.25927031104804427,
          -0.5053370961539829,
          -0.30185625278687567,
          -0.2868758390441541,
          -0.2817363357279522,
          0.3671437263073994,
          -0.20396164790058827,
          0.14060377059057216,
          -0.02377038806712629,
          -0.15190800711298597,
          0.09389216254367701,
          0.2988135366294636,
          0.017998508247016175,
          -0.1592254602113884,
          -0.03707953949563119,
          0.009307346557853487,
          -0.009727076271438954,
          -0.2589578583428406,
          -0.05719111367729175,
          0.05296467286940292,
          -0.4355158088184327,
          0.10884107571297019,
          -0.08157648186258186,
          0.05449378217926851,
          -0.20087068900376837,
          0.07740551122254351,
          -0.42020512030224183,
          0.3141825870842936,
          -0.18885776988278502,
          -0.22727549043269588,
          -0.01670428780842353,
          0.014539393122943473,
          0.07484283852314826,
          -0.32071483726060473,
          -0.47172188897919853,
          -0.08712381107434157,
          -0.26413055795104173,
          0.40904683982888124,
          0.1965402545032486,
          0.052704648759053827,
          0.4168808958880747,
          -0.41344560801549546,
          0.1606649981692682,
          -0.09912876125066086,
          -0.488141003243413,
          0.49052177914258904,
          0.09918285391923491,
          -0.004664580737631672,
          0.22221304822693821,
          0.06079981397097634,
          0.04661913299124044,
          -0.07316458918243528,
          -0.39666848085878714,
          0.18286350277855284,
          0.3012984410848022,
          -0.18902644756650144,
          -0.34810182421868285,
          -0.22309297208607604,
          -0.23464466358749292,
          -0.3271452778652447,
          -0.17060185511411036,
          0.1001145243063023,
          -0.32301616321603305,
          0.2936139957814973
        ],
        [
          -0.1472538994360414,
          -0.08966695543407333,
          -0.13506932277928801,
          0.20673673146969357,
          -0.41417173212009334,
          0.07991318793094866,
          0.05036338247110207,
          0.024671977364512772,
          -0.6135132367315973,
          -0.018143964511394207,
          -0.38051197100983347,
          0.288239224279145,
          0.1894487334563097,
          0.10739255159029558,
          0.5824744666410194,
          -0.09336366192402523,
          -0.07294239658383524,
          -0.4526217041074436,
          -0.22743423452257516,
          -0.13201277746968795,
          -0.4611544218143423,
          0.1694596915607677,
          -0.0323064315411417,
          0.04911946393018743,
          -0.10971120385422299,
          0.09098973659961733,
          -0.20970340067492915,
          0.06583650604546976,
          -0.09606273039231385,
          -0.13316922414442423,
          0.2599888596104886,
          -0.006131872231584049,
          0.033100612157656154,
          0.2798037869178789,
          -0.1008754201742242,
          -0.24092883706090176,
          0.0367734563108137,
          -0.1691125488072948,
          0.0366363205348899,
          -0.08733322741625484,
          0.2161537384144627,
          -0.3947246465612624,
          0.07655229526940771,
          -0.09527474200859558,
          -0.033233949457951564,
          -0.20074321379781773,
          -0.08575239489100384,
          0.1345269543373703,
          -0.03725305516294563,
          -0.1428932262183924,
          -0.15749941380864893,
          -0.1457175588466721,
          0.1563076880983193,
          -0.1026621609978493,
          -0.09394473867459675,
          -0.12730559765565355,
          -0.014578450530684253,
          -0.14611841608466608,
          0.002888359709325189,
          0.49504397930369554,
          -0.05743052721535009,
          -0.381420137606847,
          -0.29239906758611345,
          -0.3154609936548496
        ],
        [
          0.21927189873087027,
          -0.45240031050517393,
          -0.2501358433173103,
          0.013403832482431833,
          0.10822328309728689,
          -0.047059998900429924,
          -0.2020990238353434,
          0.062108115098348925,
          -0.4777600828399824,
          -0.2035040845142833,
          0.14077207722235718,
          -0.25556230288918785,
          0.11086836173186553,
          0.19431488682015569,
          0.3878204704206399,
          -0.3135159247605936,
          -0.1538222546451274,
          0.11482019326692203,
          -0.0680313655138484,
          -0.04433748859029032,
          -0.6029531487159341,
          -0.11910585637919184,
          0.032008390343292385,
          0.16872006168433165,
          0.32377079105931655,
          -0.17723335051145803,
          0.20355461053326487,
          0.08694412374263481,
          0.09874478063679226,
          -0.17517152666042657,
          -0.08983590004887725,
          0.04645221575183362,
          -0.12453511104172227,
          0.0003742032945107993,
          -0.11613638468231015,
          0.1533134843950347,
          -0.4757909366467104,
          0.23366834675509676,
          0.0964863824554016,
          -0.2521004150592465,
          0.304995408134835,
          0.01858203577149228,
          -0.08013083951247606,
          -0.1445241469691623,
          -0.24213454885551913,
          -0.13872454831442324,
          0.13156108723183466,
          -0.37044847216240023,
          0.07868709527059226,
          -0.1464215117756298,
          0.2894799306848129,
          -0.10295200115066001,
          0.021387813786794295,
          0.06516752726148087,
          0.06530902207908912,
          -0.1219061595929649,
          -0.3790373154013422,
          -0.10725669341738966,
          -0.230755189057214,
          -0.44830649238306136,
          0.22359636621939874,
          -0.020940888999169488,
          0.13044872191021464,
          -0.35683980970699525
        ],
        [
          -0.31361051220312697,
          -0.21368471236277478,
          -0.0017201995521017245,
          0.36381032753480014,
          0.2570718765943734,
          0.12425403157383055,
          0.3299492048361645,
          -0.1168668685875301,
          -0.5868904691199708,
          -0.21965876777514007,
          -0.12559496186653027,
          0.11002927002612478,
          0.17192111867555315,
          -0.14459486135230312,
          0.08484854515423984,
          -0.38346964013947926,
          0.26867205435427716,
          0.025800731743705854,
          0.10080986703683573,
          -0.00445862376528764,
          -0.22046723628807188,
          -0.14247993916110377,
          0.061371253700944525,
          0.051870267849672205,
          -0.043953598649846055,
          0.20592814529653944,
          -0.38857697545293457,
          -0.06875702276073999,
          0.0015403291961256407,
          -0.024767274455126224,
          0.15595229780169984,
          0.3685224546427779,
          -0.27930832462896016,
          0.1618886580622689,
          -0.21039845796687004,
          0.1582480166757216,
          -0.4064475953070918,
          0.010744509191280062,
          -0.35967646964685224,
          -0.08522665438959293,
          -0.2179714077688169,
          -0.33748481122176716,
          -0.20221178723402322,
          -0.005890528443163885,
          -0.11079932094925032,
          0.3132774685997658,
          -0.22208240358059703,
          0.23913798368328815,
          0.1805699790363403,
          0.3482757123401581,
          -0.14219164520266572,
          0.3281520634735393,
          -0.06424630429524596,
          -0.06859704416338099,
          0.012559675383231753,
          0.2059213129941103,
          -0.3807625690364565,
          0.12690830172600126,
          -0.16916758266784718,
          -0.3147768136600727,
          0.08529343263872319,
          -0.11438691937844661,
          -0.21305657303505424,
          0.35590454914373776
        ],
        [
          -0.24112265522311888,
          -0.5746074687217764,
          -0.030774896656655323,
          -0.17528419920584365,
          0.2169595232917857,
          0.10425949015088803,
          -0.3391834665614108,
          -0.2711982249307248,
          -0.1374652094365832,
          -0.24411402987169242,
          -0.096333323527812,
          0.13019638435230863,
          0.13757247708990097,
          -0.04296065844194972,
          -0.46663214240923295,
          -0.04988550667801968,
          -0.009057559089586872,
          -0.3308028616504569,
          -0.1057447567136001,
          -0.22633543765193673,
          -0.20906955341692876,
          -0.11121753300592759,
          -0.04453135777575881,
          0.10366594485997131,
          -0.36738430074284684,
          0.09516476346636735,
          -0.2995325194563975,
          -0.17288820306690442,
          -0.002227488860731674,
          0.06338589359328001,
          -0.4046010551243756,
          0.030256450946010705,
          0.009196662822250429,
          -0.26933329979469667,
          -0.1355862960727693,
          -0.07137714579181874,
          -0.5511980241162012,
          0.3080979775043947,
          -0.04410952612787726,
          -0.0409725864555731,
          -0.1714216317586886,
          -0.0030102648263744393,
          -0.07240157811213345,
          0.19176798236425696,
          -0.038428773810237696,
          0.2476579027908697,
          0.06653561857312681,
          -0.32247146070911586,
          0.021491816564472604,
          0.09636735226031334,
          0.15247451080784796,
          0.26534677001766566,
          0.26073285085301423,
          0.0233796042715302,
          0.32600026382875896,
          0.042484070626001735,
          -0.4409578814971157,
          0.08994232090228207,
          -0.20478982332438436,
          0.012636441983450342,
          -0.1416768516242423,
          -0.16430995021045292,
          0.08379182054804897,
          0.23377143460091568
        ],
        [
          -0.2199741791414355,
          -0.5354865986843995,
          -0.04297985211257304,
          0.00855508749044592,
          -0.059370577568252245,
          -0.43166061252079074,
          -0.04313814623392978,
          -0.12072887741438533,
          0.027343880419902742,
          -0.16276416970948832,
          -0.19675149819614943,
          -0.1599366197948102,
          0.0646656174988881,
          0.10268679331864758,
          0.29341473534655726,
          0.19352489632872696,
          0.2234910910081485,
          -0.5675210229402223,
          -0.23776762945984325,
          -0.16216948445467663,
          -0.4756159622758451,
          0.060509867976649125,
          0.02114503286759647,
          0.04884087781240934,
          -0.18425196959707185,
          -0.45216179074623003,
          -0.0014359053966868825,
          0.5047769156786788,
          -0.2271423696967901,
          -0.10483171154231348,
          -0.10502783333480181,
          -0.09848937466464759,
          0.20097416684586047,
          -0.19293078766135752,
          -0.4962459741215691,
          0.23945566222272854,
          -0.5199788759743977,
          0.10836023806394267,
          0.30784913703009453,
          -0.015778869724802736,
          -0.03967796912089805,
          -0.2768803973232703,
          0.08323210980050978,
          0.04903869589268768,
          -0.3204079844432603,
          0.09361314404706299,
          -0.16115419080381724,
          -0.08317072287361477,
          -0.34196696086725425,
          -0.2930744827881072,
          0.07686464311064678,
          0.023578013664641632,
          0.04693252990586694,
          0.18322452168448428,
          0.016437976280994773,
          0.10456432943780729,
          -0.34916705251580304,
          -0.31120011938420156,
          -0.10393041556190608,
          0.1639754866257699,
          0.009859499120189637,
          0.0552432207889567,
          -0.2084266196616507,
          0.1471298477970438
        ]
      ],
      "biases": [
        -0.5348821231759422,
        -0.4440454982809151,
        -0.5343112949342531,
        -0.5657278118957929,
        -0.55978027179465,
        -0.5237464144633873,
        -0.68562073709687,
        -0.5343215165409824,
        -0.7042885530989763,
        -0.6046707543231741,
        -0.46642047984692964,
        -0.6094411037663638,
        -0.4637490435494935,
        -0.5487684527032147,
        -0.5943527219566075,
        -0.4749074455541449,
        -0.4378971286993504,
        -0.5707124617311273,
        -0.4935301702828299,
        -0.617369516955165
      ],
      "activation": "sigmoid"
    }
  ],
  "decoder": [
    {
      "weights": [
        [
          -0.028588564930130633,
          -0.42779487859378584,
          -0.2681551931807338,
          -0.47362866308311624,
          -0.42741411918337685,
          0.04050648896227982,
          -0.011286271404634353,
          -0.27757305572667845,
          -0.10211031336661187,
          0.007533411511304329,
          0.11480831853097713,
          -0.07719533064207024,
          0.040959195051035104,
          0.238865195937473,
          0.2059173938033809,
          -0.8514510681789872,
          0.5637236979217276,
          -0.08911802577508056,
          0.010312350863284227,
          0.22240800271219327
        ],
        [
          -0.39461655019245756,
          0.21484126047315866,
          -0.37679901051110704,
          -0.11041116164954139,
          -0.7872599572889577,
          -0.6117643862561225,
          0.3681357019828773,
          -0.21643473065370522,
          -0.22547360155951293,
          0.027895160903746052,
          0.3335196279668591,
          0.2589513839490437,
          -0.16779897218529705,
          -0.27546386070428514,
          -0.1556939972423087,
          -0.14412527118425886,
          -0.31945771037673465,
          0.5448842159286933,
          -0.03211102405741655,
          -0.01665304798617369
        ],
        [
          -0.5837893797410945,
          -0.23445478282755097,
          0.007209833301729623,
          0.07155776193371882,
          0.10141316382994361,
          -0.08098002790471695,
          0.39264959981814995,
          -0.06054498922129354,
          0.43380246638936465,
          0.1009578982589007,
          -0.10422123644840862,
          0.0017581401276170845,
          -0.023974426244017025,
          0.0751720870001432,
          -0.14704770798335026,
          0.438407854301565,
          0.10844156581265411,
          -0.34232543834568957,
          0.5189445194238697,
          0.23525536505502506
        ],
        [
          0.05975070759653635,
          -0.49222028868402706,
          -0.0876697042240233,
          -0.01852922747400278,
          -0.256195792067094,
          -0.16217371523234037,
          -0.17008025068682606,
          0.534035686536842,
          0.17234652439248668,
          0.48559708462396567,
          -0.07254807505754314,
          -0.49736595626345204,
          -0.2288820518776926,
          -0.2356916905196611,
          -0.8428203761898456,
          0.287793864242608,
          0.2557900299993004,
          0.0028580695699047753,
          -0.11556134310278245,
          -0.10772214434676144
        ],
        [
          -0.2839446671367389,
          0.3356978228501274,
          0.12149542370876473,
          -0.1964628928660517,
          -0.49374596131137655,
          0.07616153903408306,
          0.2561513600040104,
          -0.30647196506260604,
          -0.24849947098411312,
          0.6395038006677357,
          0.36128747522683696,
          -0.42949875737472476,
          -0.07563095935215883,
          -0.6226917293946588,
          -0.5455159545743596,
          -0.3627875436578754,
          -0.12506837157946293,
          0.008774028257419431,
          0.22967588394752592,
          -0.44973006406313243
        ],
        [
          -0.27188548693565223,
          -0.04370302337169754,
          -0.34513675800748866,
          -0.10793686519250154,
          -0.04997803578089011,
          0.09904860964576274,
          0.33131293565243475,
          0.008722373067252483,
          -0.15029362286345416,
          -0.07558883985925359,
          -0.2104568400244047,
          -0.1561652439016956,
          0.7452083775427442,
          0.6020825513314394,
          0.15912759620168904,
          0.1202883112039109,
          -0.4403942601564263,
          0.00017866507987952603,
          0.29314928763303055,
          0.3167820596765399
        ],
        [
          -0.05665752308626019,
          0.08426180177788058,
          0.0315177777315924,
          0.021712099168089825,
          0.7320152133208935,
          0.12079231774422215,
          -0.42897407646770014,
          0.47085347544227424,
          -0.06627468674167498,
          -0.23512116565894478,
          0.18394604694432848,
          0.15241327016793862,
          0.01813262807463657,
          0.39622867010939733,
          -0.07680045303952011,
          0.05872044439886855,
          0.14478406524789447,
          -0.07212738356212806,
          -0.25287703058318856,
          -0.27754554814580257
        ],
        [
          0.021025823458199044,
          -0.4120835612164528,
          -0.4091083461860547,
          -0.6379467240133934,
          -0.6523892257836094,
          -0.24690115488381598,
          -0.21375266067802276,
          -0.3533807472227967,
          -0.21966734281708547,
          -0.24929304320109166,
          -0.21733580045730072,
          -0.45541447130127366,
          -0.27925791268380534,
          -0.2937418928490031,
          -0.6466717304179624,
          -0.23370936986372362,
          -0.38142768045729314,
          0.26700150468093564,
          -0.3235757065399365,
          -0.6293196626842706
        ],
        [
          -0.180873589731087,
          0.21313019381986337,
          -0.05091293446486345,
          0.1311644148966385,
          -0.46571851908280637,
          0.14171594139989147,
          -0.40156935739392174,
          0.07219361152910864,
          -0.41059869007264704,
          -0.3807060100062966,
          0.20611937466325697,
          0.2687706006492351,
          -0.24247393258804043,
          -0.06581868466381398,
          0.27740601271801585,
          -0.02225319312870151,
          0.14371971902764463,
          -0.18720052049357738,
          0.019596328396080387,
          -0.24516628252682665
        ],
        [
          0.013339694307241495,
          -0.20024866298242594,
          -0.3972558825530212,
          -0.4816945515912349,
          -0.33239131325543547,
          -0.7081906400191932,
          0.21187249908470213,
          0.19789366517135432,
          -0.2808892594452153,
          -0.48554749864493546,
          0.4484268725173511,
          0.37854031198689325,
          0.30033912851002925,
          0.6123707919706021,
          0.18237743002541554,
          0.1127984731692237,
          0.0403390983213196,
          0.35953874650297096,
          -0.05394821210389014,
          0.17207779147880847
        ],
        [
          -0.16796498154016354,
          -0.12685984193830588,
          -0.08003515937904786,
          0.45445548664532454,
          0.10606069462456881,
          0.02925073289810284,
          0.4489012710097448,
          0.15715079630802845,
          -0.07851171999482132,
          -0.06693238630796505,
          -0.15521980778379707,
          -0.41935884509025134,
          0.30580386885192357,
          0.3756914432801898,
          -0.2949110758997151,
          0.71820538732607,
          0.2821242121118015,
          -0.5325211395341394,
          -0.26588952655169124,
          0.0013066746899250334
        ],
        [
          -0.29464313353530946,
          0.24529493528642166,
          0.09212585013780113,
          -0.01170120251452332,
          0.18378572335087504,
          -0.1785746430652141,
          -0.2620323327027176,
          -0.06812362419938797,
          -0.005612859705133283,
          0.11182580356214084,
          -0.04119884046039733,
          0.15132452930512255,
          -0.5039524840647958,
          0.5230715496367278,
          0.1143506659353015,
          0.10886698726924351,
          0.05346664389571887,
          -0.096940461218638,
          -0.027243766679393405,
          -0.17675655944440322
        ],
        [
          0.25094171956451433,
          0.025254523585034522,
          -0.2139186875802069,
          -1.2515616493220887,
          0.1907619547814141,
          -0.10193145915031462,
          0.07886316742565665,
          0.03779407424910669,
          0.01635497883880857,
          -0.13552248379686577,
          0.20837996954654858,
          0.13537705454406618,
          0.19033808679545458,
          -0.030964101336342593,
          -0.17850608452538155,
          0.017019610199388482,
          -0.2540525211916693,
          0.5427090725380647,
          0.4693545134972635,
          -0.0717278932930774
        ],
        [
          0.6467028679482829,
          -0.32086549769032924,
          -0.8072553364414945,
          -0.02953693968020959,
          -0.29800178666383176,
          -0.4038070952189066,
          -0.37264248979101744,
          0.1661186241890548,
          -0.5616273878984611,
          -0.4191123629772162,
          -0.3422840246399178,
          -0.08350713403924878,
          0.06447098239231903,
          0.05460313726699487,
          -0.42850780249312653,
          0.2038445381375164,
          -0.28583646222386166,
          0.37786934081510587,
          0.19118524129009434,
          -0.07492132716966501
        ],
        [
          -0.23752980694152917,
          0.2136213512184259,
          -0.3309880450585341,
          -0.8537817737508401,
          0.35483310260474965,
          0.2213972450013842,
          -0.11808800173087355,
          0.0788765728718023,
          -0.34694550888753367,
          0.5728010640159434,
          0.05334835412085729,
          0.4599069477831547,
          0.3063508531887774,
          0.0452692915623529,
          0.09862627316076228,
          -0.3703058633510389,
          -0.5242696985305801,
          -0.3729698735000352,
          -0.21187886593471802,
          -0.5676577562359645
        ],
        [
          -0.3699619914244316,
          -0.0801057023972495,
          -0.22169329889085945,
          -0.13794289422760406,
          -0.38206794573590586,
          -0.7019291220845374,
          -0.2874366833205582,
          0.1610296171262892,
          -0.180811080684015,
          -0.46104487430138474,
          0.30514802170262817,
          -0.5955257712271058,
          0.30875488510812776,
          0.03177600575289201,
          0.029984715090155916,
          0.44722031241714577,
          0.5834764629642326,
          -0.017064679651470523,
          -0.8064480641877063,
          0.4679927358377621
        ],
        [
          -0.19468294064660524,
          -0.3171956470765712,
          -0.3275069264786219,
          -0.13093053895166085,
          -0.5130983044824767,
          -0.02067024830234914,
          0.24370360081462872,
          -0.19443335005966733,
          0.5997392654052796,
          0.020376228479202604,
          0.04953674258310069,
          0.3246570214511966,
          -0.12246053411080907,
          -0.22007076955370125,
          -0.5354041416752023,
          0.14374623242480722,
          -0.05843815779177656,
          -0.2779864736909638,
          0.666099520378631,
          -0.08108362185773439
        ],
        [
          -0.4659960617081576,
          -0.29572427104283994,
          0.42927826256297386,
          -0.12431803675807462,
          -0.40241089197940916,
          -0.09714085113452106,
          0.00129716517279143,
          -0.20957751259113594,
          -0.22257074497536686,
          -0.20308872516332524,
          -0.2280615864484953,
          0.39812138167536953,
          0.5001404479220737,
          0.04091535549890614,
          0.6163288298683806,
          0.4532762574536837,
          -0.12019908857662992,
          0.2028986746928521,
          -0.30950767143330526,
          -0.23541526265140283
        ],
        [
          0.33164331723666757,
          0.5317761519487966,
          0.09914539200966059,
          -0.2283019464648689,
          -0.14868583516479686,
          0.25006740840717545,
          -0.43475736478647087,
          -0.02007751651088151,
          -0.3265052455442092,
          -0.028149261546734396,
          -0.1122426347526635,
          -0.04632482709911158,
          -0.2958171876339807,
          0.00817130389885723,
          0.0607553312264126,
          0.16748919905939488,
          0.4925275019259007,
          -0.506296171567642,
          -0.012883215682745726,
          -0.21015122193478802
        ],
        [
          0.5633064343433228,
          0.18082877895224722,
          0.9773865031358465,
          1.3759402621683297,
          0.002537697713072308,
          0.5172918878801571,
          0.6206473452008967,
          -0.22812580930028142,
          0.4328936668366346,
          0.8119092488698447,
          0.35606640130554684,
          0.4084954834254278,
          0.3076573252959043,
          0.2759581628305238,
          0.8993449775363279,
          0.06313759460341936,
          0.3203927000410629,
          0.2753157892806302,
          0.5555654411025696,
          0.733174396165728
        ],
        [
          0.157004610269829,
          -0.3801467989800282,
          0.02566261390747496,
          0.33416899191423116,
          0.12353948315298258,
          -0.875466027413362,
          -0.1424738443653149,
          -0.08879559177755325,
          0.22096867776995283,
          -0.3511507744545544,
          -0.23815810166025436,
          -0.2792566837127858,
          0.05443291286799508,
          0.014442678905008225,
          -0.17549985866088508,
          -0.06524441837510257,
          -0.002187612976932405,
          0.06970998130172446,
          0.21179933167117299,
          -0.7222177486631458
        ],
        [
          -0.31520865221757927,
          0.06379228516444713,
          -0.45168016991266785,
          -0.07961959494195603,
          0.03514623864881615,
          0.015830497020478243,
          0.01874482839259497,
          0.21264950311831485,
          -0.6055338752068963,
          -0.30664518866163337,
          -0.34324821042930515,
          -0.03264454919481582,
          -0.21375981084287987,
          0.17133318924990804,
          -0.23646951218876078,
          -0.2652171154972993,
          -0.14218312263839822,
          0.18166460995253442,
          0.12802894495569347,
          0.1724604570593566
        ],
        [
          -0.4191838324482262,
          0.27511629820714334,
          0.5594351843424571,
          0.15545045883979752,
          0.06166101868335473,
          0.27266642790200835,
          0.35016787048486625,
          0.2781422087554595,
          -0.33061969777389205,
          -0.18031273954713192,
          0.15199126876329133,
          -0.16564403760119895,
          -0.6234500653421964,
          -0.35498602222005454,
          0.2292971570192838,
          -0.315828434334966,
          -0.08876029369757915,
          0.43971372476329185,
          -0.0026042972082863554,
          0.05560842166565984
        ],
        [
          -0.2181683188237104,
          -0.536315749657539,
          0.5223212321871816,
          -0.16982913881488187,
          -0.14992021748259493,
          0.25809817394389206,
          0.0024138343529859713,
          0.029623440360939866,
          -0.17967879012629379,
          0.324578092220197,
          0.45479123365222807,
          -0.09031284052914659,
          0.2209611953743395,
          -0.5352788824798441,
          0.018513657184375434,
          -0.06645812800079681,
          0.21599479859911944,
          -0.2831814031448618,
          -0.3301773097105003,
          0.015982740703560563
        ],
        [
          -0.5187615929980149,
          -0.1708677281166335,
          0.462692595229291,
          0.29823602514758013,
          0.37028708426977586,
          0.2672102400026242,
          -0.36675811645492107,
          0.1794162262659411,
          0.07770459756234842,
          -0.08281360744416612,
          -0.006269632498001103,
          0.8620385084438378,
          -0.17290935185932163,
          0.5898130764580168,
          0.4435990835268069,
          0.047057955690254505,
          -0.05230447719441072,
          -0.46818855028886636,
          0.4155584086652589,
          0.9682848664911745
        ],
        [
          -0.7790089957504607,
          0.28605830180475156,
          -0.18384666038722838,
          0.19785367315653218,
          -0.10799250473447852,
          -0.19828665295720072,
          -0.043902256698777994,
          -0.3822982362328495,
          0.014482178384164978,
          -0.17508914554976748,
          -0.2431640210785852,
          -0.44062683420951326,
          0.24985388492412375,
          -0.25467576062563696,
          0.44831013023163935,
          0.3518268583506711,
          -0.4003136353411089,
          -0.26871154255279855,
          0.07605180853744414,
          0.09874678380774307
        ],
        [
          -0.16399399368105172,
          -0.526643537490122,
          0.7311738651065839,
          0.371713264308383,
          0.1142807772970241,
          -0.04775924572203475,
          -0.07425482780907827,
          -0.06303416544966943,
          0.09466634623430761,
          -0.5280662334064974,
          -0.4158541295293569,
          0.09856895413122743,
          0.13722724047539747,
          -0.3631286637027344,
          0.13151211980248229,
          -0.8160520499132176,
          0.06130887157596912,
          -0.0607453134071159,
          -0.06005870728164133,
          -0.04894142330816063
        ],
        [
          0.1339837110885918,
          0.10327858834948271,
          -0.26325772781443346,
          0.2191473197902861,
          -0.012800702703809994,
          -0.35499893169222346,
          0.14710892252059812,
          -0.3327935417069389,
          0.25358555231697677,
          -0.47283285013387305,
          0.4535543399881003,
          -0.5688649677203451,
          0.2459478550118534,
          -0.23607400988778882,
          -0.3403642515039577,
          -0.27723995083685204,
          -0.1957558412587257,
          0.753852894890272,
          0.17254794621618505,
          -0.02879804834096384
        ],
        [
          0.5378108826639365,
          -0.008008432805844855,
          -0.20037825195485706,
          0.14153057895260973,
          0.17655335613393952,
          0.4129432658874159,
          -0.04193525199451878,
          0.03277323183764947,
          -0.33483266401072903,
          -0.30398299141230634,
          0.05693147356072924,
          0.38727063438247256,
          0.8546961397466399,
          0.6185746336572903,
          -0.5699467784189811,
          0.03979987937438963,
          -0.14352255279984255,
          0.031610152952410146,
          0.1857430248195769,
          0.6189802196553112
        ],
        [
          -0.05754252285085032,
          -0.12155461391480694,
          0.15849163949469158,
          -0.3582070597644778,
          0.04209758820774665,
          0.266753643736392,
          0.16538825771527152,
          0.3675086218950096,
          0.36614876029506016,
          -0.21969868549950866,
          0.2544712636202169,
          -0.245921602926082,
          -0.1458044942374885,
          0.46427774232832303,
          -0.1929018279122263,
          0.06842813500069148,
          0.2909485050426803,
          -0.34164631249013855,
          -0.14281730569671344,
          0.6875802118292426
        ],
        [
          0.026080193143380392,
          -0.5061940115371322,
          -0.2579256340474504,
          0.11163055322533871,
          0.2981624262062964,
          0.20611133989950636,
          0.38547338563858513,
          0.008829599163181892,
          -0.1799842890100768,
          0.1592480527991713,
          0.03637033071862372,
          -0.5768186963632089,
          -0.14945285115888088,
          0.10442908404608763,
          -0.3675440152360324,
          -0.41306803828633293,
          -0.048692102128190154,
          0.16981025251807924,
          -0.3100634961463911,
          -0.16080634212514305
        ],
        [
          0.6628638514950055,
          0.36828936669598167,
          0.13138497810731464,
          -0.11165123856600648,
          -0.0859713725288487,
          0.10851922812873512,
          0.039291632216414185,
          -0.18655423642105445,
          -0.18160922262126097,
          -0.07996404367828754,
          0.044605257944040605,
          -0.7159776331765548,
          -0.5714972661272243,
          -0.31116363021964666,
          0.11619557935275064,
          -0.10825097387114718,
          0.20574186687079768,
          0.35219539619841883,
          0.3091592929013529,
          0.3761598436347993
        ],
        [
          0.23761618430415887,
          0.1604621815906657,
          0.23757762321743814,
          -0.1710137579133723,
          -0.5603535125500084,
          0.18438879064908809,
          -0.0404467703321314,
          0.15505092880622776,
          0.2785172331252443,
          0.09125838360292132,
          -0.14162223970530957,
          0.14051261036876966,
          -0.09447581309588847,
          -0.44386354004913287,
          -0.3599242215352799,
          0.3986528313583212,
          -0.2484313251565385,
          -0.32279590962954485,
          -0.01777749006191627,
          0.15480835692947012
        ],
        [
          0.7514226583768379,
          0.04274488154947762,
          -0.1529429013765556,
          -0.1503269847544028,
          0.4940727719043294,
          -0.2554211693195916,
          -0.5631935909289733,
          0.6843151704091281,
          -0.634204051509947,
          -0.44661462081367864,
          -0.5960463078005653,
          0.2951021678975887,
          0.06856470792966071,
          -0.5786914526402406,
          0.2991402520145583,
          -0.268653698902005,
          0.10953244731819527,
          -0.3698654168451184,
          -0.060451250616827386,
          -0.23240454655569986
        ],
        [
          0.35498002409047125,
          0.04713750038980282,
          0.2829755819654301,
          0.15803632563182296,
          -0.37973239868894126,
          -0.21076285967054215,
          -0.09746020035413883,
          0.2153915923451027,
          0.23835288986058478,
          -0.4026597296407142,
          0.18289066922668631,
          0.02695394243811418,
          -0.047967507006812266,
          -0.43001178274646035,
          -0.406672217175714,
          -0.24080577131164813,
          -0.13607377730833986,
          0.2615187774167543,
          0.04163489027149732,
          -0.5176085379729328
        ],
        [
          0.11453188658453307,
          0.1672365176656976,
          -0.09252589816547133,
          0.008221488800243645,
          -0.2970915243562435,
          -0.22215016893208328,
          0.0077623366481148716,
          -0.527130273277067,
          -0.3251447062042322,
          0.368683310155533,
          -0.2082703426490211,
          -0.01876288392988967,
          -0.29438507063076264,
          0.006107834019804841,
          0.2108887044357768,
          0.7332633057974816,
          0.2038665233323068,
          0.2680027747668961,
          -0.5649412170670965,
          -0.2935734753797445
        ],
        [
          0.281762422888793,
          0.14927454371313592,
          0.3226770652190798,
          0.32297087977765565,
          -0.02153492591077678,
          0.25361288266355136,
          -0.006941601476699509,
          0.10561118997152937,
          -0.07772127703216025,
          0.041001805545947886,
          -0.006602909099844179,
          -0.5665843293596741,
          -0.3347550718509361,
          -0.0777051363262356,
          -0.11001109004796568,
          0.751513157741706,
          0.07196015318166962,
          0.07455002344153869,
          0.6540229974125915,
          -0.3364024651451042
        ],
        [
          0.2614234350049776,
          0.25281011831497463,
          0.0026287365475585176,
          0.02858549787668107,
          0.354222064290392,
          -0.1291498969888405,
          -0.09578252485740796,
          -0.19908038811959938,
          -0.3988273292327984,
          0.4959061790007888,
          -0.562543238204811,
          -0.5105603647347045,
          0.12758226660198368,
          0.5907208930613802,
          -0.00752438367035025,
          -0.4199454259925247,
          -0.2687023301884095,
          -0.3612230769284147,
          -0.325138508343804,
          -0.1758226025309188
        ],
        [
          -0.606459991186641,
          0.5096229069069623,
          -0.3070131182384338,
          0.3507621793029069,
          -0.43536578706485735,
          -0.1377508416500016,
          0.3683581378610082,
          -0.3076691971095441,
          -0.14366029136064504,
          0.2286186449457816,
          0.6943334982962674,
          0.08274294376127221,
          -0.19641515370611543,
          -0.6230094342638727,
          0.5290686899937209,
          0.6057443826921233,
          -0.6321786179594182,
          0.3584494473905491,
          0.47589718510133183,
          0.3514092313680619
        ],
        [
          -0.04491855476016946,
          0.4977681072576499,
          0.3774549215127552,
          -0.1622642019205657,
          0.21443104449483347,
          -0.6176392105174886,
          0.1788250900636955,
          -0.3602213473261349,
          -0.2823043700248514,
          -0.1643841792746415,
          -0.37721651547773777,
          -0.294804152378318,
          -0.13733371307065378,
          -0.8275559293616163,
          -0.48724163099887324,
          -0.257974558839217,
          -0.1799860038872336,
          -0.4756196072723169,
          -0.26275755168378495,
          -0.042540979014660835
        ],
        [
          -0.3717170746708557,
          0.34636804163245344,
          0.2422809006089164,
          -0.009039725706763826,
          -0.3293047515474309,
          -0.25469115333867526,
          -0.0034919922500786806,
          0.12181455453143612,
          0.04162160265540733,
          0.07532580393114192,
          -0.03525957806573406,
          0.0971677504321084,
          -0.18200228826756842,
          -0.06230334208141513,
          0.46758556000038004,
          -0.028614741746031968,
          0.44630916125164305,
          0.00582480512982242,
          -0.13979689348121113,
          0.1746002946795946
        ],
        [
          0.17914383133595677,
          0.8189442538812063,
          0.04466021017838497,
          0.504353629050644,
          0.9263190186782673,
          -0.04445649406484553,
          0.055010814364179005,
          0.036962455770889045,
          0.14586563536768693,
          -0.470691594756921,
          0.24597619422136846,
          -0.23843203303265117,
          -0.15755807734412858,
          0.47600234017271953,
          0.4677559920932209,
          0.21443496825421524,
          0.19782810665648604,
          -0.4592822811260527,
          0.16202452926350855,
          0.6163002080097187
        ],
        [
          -0.7420546208262809,
          -0.024439690888674058,
          -0.4104144616305906,
          0.17804360125660362,
          -0.14318788517034353,
          0.29792597154475015,
          -0.05635714153935027,
          0.07341423313962593,
          -0.30194985124109464,
          0.09177852154980692,
          -0.4468623015473992,
          0.5114994467921428,
          -0.3543166360548376,
          -0.5505379195351332,
          0.0028867664648692453,
          -0.060323954908256455,
          0.40964761067699906,
          -0.9895275547170581,
          0.062274477805211385,
          0.5157794801875933
        ],
        [
          0.5096898839920329,
          0.19353356715041103,
          0.2559795242188522,
          0.033041684374375456,
          0.052088815335383225,
          -0.11584495499743494,
          0.46772697155720794,
          0.48501709115479713,
          0.1674329520508298,
          -0.23971811211025904,
          0.19917461638862266,
          -0.08330397005360511,
          -0.44420251283666545,
          -0.1732701198652106,
          0.14107264695912639,
          -0.33533000678839114,
          0.49364564808333666,
          -0.20834414628299353,
          0.2756368120573986,
          0.715130105258065
        ],
        [
          -0.6090134328441055,
          0.12541011245309475,
          -0.3047944371450493,
          -0.08605471190324161,
          -0.4669880639684283,
          -0.43608585631086133,
          0.3018956437427591,
          -0.11234814731283724,
          0.39844555235538115,
          -0.05521525881242065,
          0.3792039301295436,
          -0.4068273237969186,
          0.008621302772797315,
          0.2426584652732094,
          0.8731307484357296,
          -0.4063819530567056,
          -0.5964943381188287,
          -0.19007694976333994,
          0.10492531858707076,
          -0.29832863069477017
        ],
        [
          -0.010512594041764656,
          -0.3679039545598732,
          0.6042908766222432,
          0.36497342960371076,
          -0.5851506939748109,
          -0.17294582526883562,
          0.2970468991071296,
          -0.36106152389583535,
          0.2576219301684202,
          0.5846687407686963,
          0.4315833839499485,
          0.1355232158872474,
          0.013846395841268231,
          -0.14676203880226854,
          -0.03641262365575078,
          0.3587884400481429,
          0.18727669031806768,
          -0.3084513090210647,
          -0.4113754210178236,
          -0.1443630385999698
        ],
        [
          0.1392518517869123,
          0.1597888648323157,
          -0.03473367357459442,
          -0.02035349093980582,
          -0.1231318627493512,
          0.28295029281450995,
          -0.42182090520772386,
          -0.5216657996222543,
          -0.25530949623691246,
          -0.26124242298676326,
          -0.1322969406495162,
          0.041629660922917325,
          -0.5594867557080716,
          -0.22753864014691483,
          -0.33447569764577095,
          -0.09641781609042432,
          0.16078556320163406,
          0.4395765754326232,
          -0.3842361919147324,
          -0.3501877648361088
        ],
        [
          -0.49183798065706097,
          -0.23610925777214792,
          0.004095831481576902,
          0.17393293766156984,
          -0.12992640963089036,
          0.5375107157737591,
          0.15588434184047917,
          0.30534510382051955,
          0.06928602266562074,
          -0.6320201126105586,
          -0.136451624222176,
          -0.10649627148962067,
          -0.6590418628263135,
          -0.2800590376973806,
          -0.9928322938157934,
          -0.2516484160263282,
          -0.03584681585673654,
          -0.11154029538845253,
          -0.46390264304369044,
          -0.11133211344605377
        ],
        [
          -0.01891508521767304,
          0.08582705478827068,
          -0.9714172612976464,
          -0.1910763271403339,
          -0.41987295701418326,
          -0.07892155705610444,
          0.20697924223541686,
          0.06207315062352796,
          0.14293929282087325,
          -0.6316875956482367,
          0.20684757569740164,
          -0.26696167634940443,
          0.23721329602328894,
          -0.056971372760167914,
          -0.21767997881546394,
          -0.06477174435900261,
          0.3054510325234232,
          -0.46371860226592626,
          -0.014348177345994494,
          0.1951098856951293
        ],
        [
          0.47566812500904565,
          -0.20054899644484012,
          -0.42331008242630386,
          0.058894729857971125,
          -0.3783373369838966,
          0.7149854314828116,
          -0.33532568156574233,
          0.7057600755162285,
          -0.3497798268443593,
          -0.12301792219724642,
          -0.20342230696758284,
          0.6119969714829163,
          -0.14693364288923938,
          0.46075082053891053,
          0.364267709320285,
          -0.2953668757926575,
          0.48179078575048573,
          0.3388855984135738,
          -0.118749110524267,
          -0.32224143235252284
        ],
        [
          -0.0637400463534881,
          -0.3603108130003779,
          0.38752340714881933,
          0.12387587723786808,
          0.3463322298091405,
          0.21302183261601995,
          0.5799687945250805,
          -0.4413752900787064,
          0.08798397147218198,
          0.2074860475223959,
          0.3143175984332948,
          -0.22782935263161316,
          0.30097263733581486,
          -0.26505400872266305,
          -0.05823058126034064,
          0.1568664395742638,
          0.18704244079196883,
          -0.18748129027483895,
          -0.4167921527916024,
          -0.1264260933301326
        ],
        [
          0.47585409833034054,
          -0.6231527639982462,
          0.5501779207796884,
          0.012606631089030939,
          -0.12323271539724398,
          -0.1424317173809401,
          0.3920380331696806,
          0.1961774977573361,
          0.22543363705100514,
          0.06139947090030047,
          0.03668271870503347,
          0.5175632594159435,
          0.3258556399459717,
          -0.15951045899262198,
          0.049435730717704386,
          -0.9890437338940083,
          0.37416392672267973,
          0.05509771997913238,
          0.03475070490415882,
          0.3377123871775118
        ],
        [
          0.26189591337476414,
          -0.3276551146092056,
          -0.42725307155706826,
          0.5803902578125502,
          -0.3826733948526838,
          -0.5839021979317723,
          0.13144782926728055,
          -0.5599050228930548,
          0.17365860061091778,
          0.1586557343201309,
          0.233653517527564,
          -0.542586024798647,
          -0.3435047622632582,
          -0.26453381294163436,
          -0.029027547617248135,
          -0.5611932760344036,
          -0.08622806726336979,
          0.1295510171064917,
          -0.15457040991143495,
          1.2004792812832008
        ],
        [
          0.023644859561843826,
          0.35071677266088774,
          -0.20799374857090844,
          -0.39737965018716537,
          0.33701563891014424,
          0.004985997597295377,
          0.5509680604927834,
          -0.09878915911861975,
          0.2510070522609395,
          -0.3116387978561024,
          0.2655075152774846,
          -0.15650103354195233,
          0.05241305858966632,
          0.25943651450955796,
          -0.6419940777328644,
          -0.053293463749554654,
          0.2214775193555485,
          -0.6311451649013191,
          -0.1053214649640022,
          -0.04564377501884265
        ],
        [
          0.08584975155096614,
          0.15903339221424553,
          0.21713539230312287,
          0.35881745219867356,
          -0.5917096982504727,
          -0.0731248100210832,
          -0.3249213290645733,
          -0.5845868259528939,
          0.6171898755190173,
          0.12640925905368605,
          0.14632142448736543,
          -0.8421663588476781,
          0.023331819629668474,
          -0.3336506601458855,
          0.011684769786618612,
          0.14867405022211325,
          -0.1780426521579641,
          0.6909075249256913,
          0.09000311902429918,
          -0.32949965369175455
        ],
        [
          0.39675703357907505,
          0.41484101810154994,
          -0.010096789738984825,
          0.2797538760155741,
          0.08300237873425727,
          0.36945097647546177,
          -0.7406033474978396,
          -0.293185104011444,
          0.23051321031836983,
          0.3800218808574189,
          0.088750712489649,
          -0.10260024291784112,
          -0.021452052198976407,
          -0.07619958691768637,
          -0.05100359071778242,
          0.8033413739581021,
          0.491077504930899,
          -0.06808290762752404,
          -0.02301507647908532,
          0.6153737671755899
        ],
        [
          -0.17580242851143565,
          -0.0021641985414567726,
          -0.15899936816258017,
          0.5183596747362618,
          0.030780419943970454,
          -0.33347022307537577,
          0.41660305102356077,
          0.22791111590529356,
          -0.1069068614545229,
          -0.014779369807950547,
          -0.35419896616605095,
          -0.128579937388241,
          -0.3401880668866199,
          0.048076735172040946,
          -0.4156201420139257,
          0.08636100077260728,
          -0.3481354630695945,
          -0.22714539804249131,
          0.26816341029414514,
          -0.28572873695309625
        ],
        [
          -0.21097883319915003,
          -0.17852982984614874,
          -0.7992436027776749,
          0.1011348239443745,
          -0.03529306685772607,
          -0.18827589018106194,
          -0.1379696619461366,
          0.04235889504384102,
          0.5675154216726144,
          0.015318025533732266,
          -0.21883366163035023,
          -0.28326470330412296,
          0.10011598382400672,
          0.39963523601466044,
          -0.6168351922312242,
          -0.510350527483274,
